digraph Tree {
node [shape=box, style="filled, rounded", color="black", fontname="helvetica"] ;
edge [fontname="helvetica"] ;
0 [label="HbA1c_level <= 6.7\ngini = 0.195\nsamples = 48135\nvalue = [42855, 5280]\nclass = 0", fillcolor="#e89151"] ;
1 [label="blood_glucose_level <= 210.0\ngini = 0.117\nsamples = 45711\nvalue = [42855, 2856]\nclass = 0", fillcolor="#e78946"] ;
0 -> 1 [labeldistance=2.5, labelangle=45, headlabel="True"] ;
2 [label="HbA1c_level <= 5.35\ngini = 0.075\nsamples = 44607\nvalue = [42855, 1752]\nclass = 0", fillcolor="#e68641"] ;
1 -> 2 ;
3 [label="gini = 0.0\nsamples = 17715\nvalue = [17715, 0]\nclass = 0", fillcolor="#e58139"] ;
2 -> 3 ;
4 [label="age <= 54.5\ngini = 0.122\nsamples = 26892\nvalue = [25140, 1752]\nclass = 0", fillcolor="#e78a47"] ;
2 -> 4 ;
5 [label="bmi <= 39.325\ngini = 0.059\nsamples = 17522\nvalue = [16987, 535]\nclass = 0", fillcolor="#e6853f"] ;
4 -> 5 ;
6 [label="age <= 38.5\ngini = 0.048\nsamples = 16446\nvalue = [16043, 403]\nclass = 0", fillcolor="#e6843e"] ;
5 -> 6 ;
7 [label="hypertension <= 0.5\ngini = 0.021\nsamples = 9690\nvalue = [9585, 105]\nclass = 0", fillcolor="#e5823b"] ;
6 -> 7 ;
8 [label="blood_glucose_level <= 113.0\ngini = 0.02\nsamples = 9562\nvalue = [9467, 95]\nclass = 0", fillcolor="#e5823b"] ;
7 -> 8 ;
9 [label="gini = 0.0\nsamples = 2949\nvalue = [2949, 0]\nclass = 0", fillcolor="#e58139"] ;
8 -> 9 ;
10 [label="bmi <= 30.725\ngini = 0.028\nsamples = 6613\nvalue = [6518, 95]\nclass = 0", fillcolor="#e5833c"] ;
8 -> 10 ;
11 [label="gender <= 0.5\ngini = 0.022\nsamples = 5643\nvalue = [5580, 63]\nclass = 0", fillcolor="#e5823b"] ;
10 -> 11 ;
12 [label="bmi <= 13.765\ngini = 0.016\nsamples = 3505\nvalue = [3477, 28]\nclass = 0", fillcolor="#e5823b"] ;
11 -> 12 ;
13 [label="blood_glucose_level <= 159.5\ngini = 0.245\nsamples = 7\nvalue = [6, 1]\nclass = 0", fillcolor="#e9965a"] ;
12 -> 13 ;
14 [label="gini = 0.0\nsamples = 6\nvalue = [6, 0]\nclass = 0", fillcolor="#e58139"] ;
13 -> 14 ;
15 [label="gini = 0.0\nsamples = 1\nvalue = [0, 1]\nclass = 1", fillcolor="#399de5"] ;
13 -> 15 ;
16 [label="blood_glucose_level <= 128.0\ngini = 0.015\nsamples = 3498\nvalue = [3471, 27]\nclass = 0", fillcolor="#e5823b"] ;
12 -> 16 ;
17 [label="age <= 15.5\ngini = 0.038\nsamples = 415\nvalue = [407, 8]\nclass = 0", fillcolor="#e6833d"] ;
16 -> 17 ;
18 [label="age <= 13.5\ngini = 0.105\nsamples = 54\nvalue = [51, 3]\nclass = 0", fillcolor="#e78845"] ;
17 -> 18 ;
19 [label="gini = 0.0\nsamples = 35\nvalue = [35, 0]\nclass = 0", fillcolor="#e58139"] ;
18 -> 19 ;
20 [label="HbA1c_level <= 6.55\ngini = 0.266\nsamples = 19\nvalue = [16, 3]\nclass = 0", fillcolor="#ea995e"] ;
18 -> 20 ;
21 [label="bmi <= 20.75\ngini = 0.198\nsamples = 18\nvalue = [16, 2]\nclass = 0", fillcolor="#e89152"] ;
20 -> 21 ;
22 [label="gini = 0.0\nsamples = 8\nvalue = [8, 0]\nclass = 0", fillcolor="#e58139"] ;
21 -> 22 ;
23 [label="bmi <= 20.99\ngini = 0.32\nsamples = 10\nvalue = [8, 2]\nclass = 0", fillcolor="#eca06a"] ;
21 -> 23 ;
24 [label="gini = 0.0\nsamples = 1\nvalue = [0, 1]\nclass = 1", fillcolor="#399de5"] ;
23 -> 24 ;
25 [label="HbA1c_level <= 6.15\ngini = 0.198\nsamples = 9\nvalue = [8, 1]\nclass = 0", fillcolor="#e89152"] ;
23 -> 25 ;
26 [label="bmi <= 24.985\ngini = 0.444\nsamples = 3\nvalue = [2, 1]\nclass = 0", fillcolor="#f2c09c"] ;
25 -> 26 ;
27 [label="gini = 0.0\nsamples = 2\nvalue = [2, 0]\nclass = 0", fillcolor="#e58139"] ;
26 -> 27 ;
28 [label="gini = 0.0\nsamples = 1\nvalue = [0, 1]\nclass = 1", fillcolor="#399de5"] ;
26 -> 28 ;
29 [label="gini = 0.0\nsamples = 6\nvalue = [6, 0]\nclass = 0", fillcolor="#e58139"] ;
25 -> 29 ;
30 [label="gini = 0.0\nsamples = 1\nvalue = [0, 1]\nclass = 1", fillcolor="#399de5"] ;
20 -> 30 ;
31 [label="bmi <= 27.285\ngini = 0.027\nsamples = 361\nvalue = [356, 5]\nclass = 0", fillcolor="#e5833c"] ;
17 -> 31 ;
32 [label="bmi <= 21.205\ngini = 0.009\nsamples = 214\nvalue = [213, 1]\nclass = 0", fillcolor="#e5823a"] ;
31 -> 32 ;
33 [label="bmi <= 21.165\ngini = 0.028\nsamples = 71\nvalue = [70, 1]\nclass = 0", fillcolor="#e5833c"] ;
32 -> 33 ;
34 [label="gini = 0.0\nsamples = 70\nvalue = [70, 0]\nclass = 0", fillcolor="#e58139"] ;
33 -> 34 ;
35 [label="gini = 0.0\nsamples = 1\nvalue = [0, 1]\nclass = 1", fillcolor="#399de5"] ;
33 -> 35 ;
36 [label="gini = 0.0\nsamples = 143\nvalue = [143, 0]\nclass = 0", fillcolor="#e58139"] ;
32 -> 36 ;
37 [label="age <= 37.5\ngini = 0.053\nsamples = 147\nvalue = [143, 4]\nclass = 0", fillcolor="#e6853f"] ;
31 -> 37 ;
38 [label="age <= 19.5\ngini = 0.043\nsamples = 138\nvalue = [135, 3]\nclass = 0", fillcolor="#e6843d"] ;
37 -> 38 ;
39 [label="HbA1c_level <= 6.55\ngini = 0.142\nsamples = 13\nvalue = [12, 1]\nclass = 0", fillcolor="#e78c49"] ;
38 -> 39 ;
40 [label="gini = 0.0\nsamples = 11\nvalue = [11, 0]\nclass = 0", fillcolor="#e58139"] ;
39 -> 40 ;
41 [label="smoking_history <= 0.5\ngini = 0.5\nsamples = 2\nvalue = [1, 1]\nclass = 0", fillcolor="#ffffff"] ;
39 -> 41 ;
42 [label="gini = 0.0\nsamples = 1\nvalue = [1, 0]\nclass = 0", fillcolor="#e58139"] ;
41 -> 42 ;
43 [label="gini = 0.0\nsamples = 1\nvalue = [0, 1]\nclass = 1", fillcolor="#399de5"] ;
41 -> 43 ;
44 [label="HbA1c_level <= 6.05\ngini = 0.031\nsamples = 125\nvalue = [123, 2]\nclass = 0", fillcolor="#e5833c"] ;
38 -> 44 ;
45 [label="bmi <= 29.74\ngini = 0.075\nsamples = 51\nvalue = [49, 2]\nclass = 0", fillcolor="#e68641"] ;
44 -> 45 ;
46 [label="age <= 28.5\ngini = 0.044\nsamples = 44\nvalue = [43, 1]\nclass = 0", fillcolor="#e6843e"] ;
45 -> 46 ;
47 [label="gini = 0.0\nsamples = 23\nvalue = [23, 0]\nclass = 0", fillcolor="#e58139"] ;
46 -> 47 ;
48 [label="age <= 29.5\ngini = 0.091\nsamples = 21\nvalue = [20, 1]\nclass = 0", fillcolor="#e68743"] ;
46 -> 48 ;
49 [label="smoking_history <= 0.5\ngini = 0.444\nsamples = 3\nvalue = [2, 1]\nclass = 0", fillcolor="#f2c09c"] ;
48 -> 49 ;
50 [label="HbA1c_level <= 5.75\ngini = 0.5\nsamples = 2\nvalue = [1, 1]\nclass = 0", fillcolor="#ffffff"] ;
49 -> 50 ;
51 [label="gini = 0.0\nsamples = 1\nvalue = [1, 0]\nclass = 0", fillcolor="#e58139"] ;
50 -> 51 ;
52 [label="gini = 0.0\nsamples = 1\nvalue = [0, 1]\nclass = 1", fillcolor="#399de5"] ;
50 -> 52 ;
53 [label="gini = 0.0\nsamples = 1\nvalue = [1, 0]\nclass = 0", fillcolor="#e58139"] ;
49 -> 53 ;
54 [label="gini = 0.0\nsamples = 18\nvalue = [18, 0]\nclass = 0", fillcolor="#e58139"] ;
48 -> 54 ;
55 [label="bmi <= 29.92\ngini = 0.245\nsamples = 7\nvalue = [6, 1]\nclass = 0", fillcolor="#e9965a"] ;
45 -> 55 ;
56 [label="gini = 0.0\nsamples = 1\nvalue = [0, 1]\nclass = 1", fillcolor="#399de5"] ;
55 -> 56 ;
57 [label="gini = 0.0\nsamples = 6\nvalue = [6, 0]\nclass = 0", fillcolor="#e58139"] ;
55 -> 57 ;
58 [label="gini = 0.0\nsamples = 74\nvalue = [74, 0]\nclass = 0", fillcolor="#e58139"] ;
44 -> 58 ;
59 [label="smoking_history <= 1.5\ngini = 0.198\nsamples = 9\nvalue = [8, 1]\nclass = 0", fillcolor="#e89152"] ;
37 -> 59 ;
60 [label="gini = 0.0\nsamples = 6\nvalue = [6, 0]\nclass = 0", fillcolor="#e58139"] ;
59 -> 60 ;
61 [label="smoking_history <= 2.5\ngini = 0.444\nsamples = 3\nvalue = [2, 1]\nclass = 0", fillcolor="#f2c09c"] ;
59 -> 61 ;
62 [label="gini = 0.0\nsamples = 1\nvalue = [0, 1]\nclass = 1", fillcolor="#399de5"] ;
61 -> 62 ;
63 [label="gini = 0.0\nsamples = 2\nvalue = [2, 0]\nclass = 0", fillcolor="#e58139"] ;
61 -> 63 ;
64 [label="blood_glucose_level <= 158.5\ngini = 0.012\nsamples = 3083\nvalue = [3064, 19]\nclass = 0", fillcolor="#e5823a"] ;
16 -> 64 ;
65 [label="bmi <= 17.705\ngini = 0.006\nsamples = 1952\nvalue = [1946, 6]\nclass = 0", fillcolor="#e5813a"] ;
64 -> 65 ;
66 [label="bmi <= 17.595\ngini = 0.037\nsamples = 106\nvalue = [104, 2]\nclass = 0", fillcolor="#e6833d"] ;
65 -> 66 ;
67 [label="gini = 0.0\nsamples = 103\nvalue = [103, 0]\nclass = 0", fillcolor="#e58139"] ;
66 -> 67 ;
68 [label="HbA1c_level <= 6.0\ngini = 0.444\nsamples = 3\nvalue = [1, 2]\nclass = 1", fillcolor="#9ccef2"] ;
66 -> 68 ;
69 [label="gini = 0.0\nsamples = 1\nvalue = [1, 0]\nclass = 0", fillcolor="#e58139"] ;
68 -> 69 ;
70 [label="gini = 0.0\nsamples = 2\nvalue = [0, 2]\nclass = 1", fillcolor="#399de5"] ;
68 -> 70 ;
71 [label="HbA1c_level <= 6.55\ngini = 0.004\nsamples = 1846\nvalue = [1842, 4]\nclass = 0", fillcolor="#e58139"] ;
65 -> 71 ;
72 [label="bmi <= 28.795\ngini = 0.003\nsamples = 1582\nvalue = [1580, 2]\nclass = 0", fillcolor="#e58139"] ;
71 -> 72 ;
73 [label="smoking_history <= 2.5\ngini = 0.001\nsamples = 1469\nvalue = [1468, 1]\nclass = 0", fillcolor="#e58139"] ;
72 -> 73 ;
74 [label="gini = 0.0\nsamples = 1248\nvalue = [1248, 0]\nclass = 0", fillcolor="#e58139"] ;
73 -> 74 ;
75 [label="blood_glucose_level <= 142.5\ngini = 0.009\nsamples = 221\nvalue = [220, 1]\nclass = 0", fillcolor="#e5823a"] ;
73 -> 75 ;
76 [label="age <= 28.5\ngini = 0.024\nsamples = 84\nvalue = [83, 1]\nclass = 0", fillcolor="#e5833b"] ;
75 -> 76 ;
77 [label="gini = 0.0\nsamples = 54\nvalue = [54, 0]\nclass = 0", fillcolor="#e58139"] ;
76 -> 77 ;
78 [label="age <= 29.5\ngini = 0.064\nsamples = 30\nvalue = [29, 1]\nclass = 0", fillcolor="#e68540"] ;
76 -> 78 ;
79 [label="HbA1c_level <= 6.05\ngini = 0.5\nsamples = 2\nvalue = [1, 1]\nclass = 0", fillcolor="#ffffff"] ;
78 -> 79 ;
80 [label="gini = 0.0\nsamples = 1\nvalue = [0, 1]\nclass = 1", fillcolor="#399de5"] ;
79 -> 80 ;
81 [label="gini = 0.0\nsamples = 1\nvalue = [1, 0]\nclass = 0", fillcolor="#e58139"] ;
79 -> 81 ;
82 [label="gini = 0.0\nsamples = 28\nvalue = [28, 0]\nclass = 0", fillcolor="#e58139"] ;
78 -> 82 ;
83 [label="gini = 0.0\nsamples = 137\nvalue = [137, 0]\nclass = 0", fillcolor="#e58139"] ;
75 -> 83 ;
84 [label="bmi <= 28.81\ngini = 0.018\nsamples = 113\nvalue = [112, 1]\nclass = 0", fillcolor="#e5823b"] ;
72 -> 84 ;
85 [label="age <= 29.5\ngini = 0.5\nsamples = 2\nvalue = [1, 1]\nclass = 0", fillcolor="#ffffff"] ;
84 -> 85 ;
86 [label="gini = 0.0\nsamples = 1\nvalue = [1, 0]\nclass = 0", fillcolor="#e58139"] ;
85 -> 86 ;
87 [label="gini = 0.0\nsamples = 1\nvalue = [0, 1]\nclass = 1", fillcolor="#399de5"] ;
85 -> 87 ;
88 [label="gini = 0.0\nsamples = 111\nvalue = [111, 0]\nclass = 0", fillcolor="#e58139"] ;
84 -> 88 ;
89 [label="blood_glucose_level <= 142.5\ngini = 0.015\nsamples = 264\nvalue = [262, 2]\nclass = 0", fillcolor="#e5823b"] ;
71 -> 89 ;
90 [label="gini = 0.0\nsamples = 120\nvalue = [120, 0]\nclass = 0", fillcolor="#e58139"] ;
89 -> 90 ;
91 [label="age <= 17.5\ngini = 0.027\nsamples = 144\nvalue = [142, 2]\nclass = 0", fillcolor="#e5833c"] ;
89 -> 91 ;
92 [label="age <= 16.5\ngini = 0.091\nsamples = 21\nvalue = [20, 1]\nclass = 0", fillcolor="#e68743"] ;
91 -> 92 ;
93 [label="gini = 0.0\nsamples = 17\nvalue = [17, 0]\nclass = 0", fillcolor="#e58139"] ;
92 -> 93 ;
94 [label="blood_glucose_level <= 151.5\ngini = 0.375\nsamples = 4\nvalue = [3, 1]\nclass = 0", fillcolor="#eeab7b"] ;
92 -> 94 ;
95 [label="gini = 0.0\nsamples = 1\nvalue = [0, 1]\nclass = 1", fillcolor="#399de5"] ;
94 -> 95 ;
96 [label="gini = 0.0\nsamples = 3\nvalue = [3, 0]\nclass = 0", fillcolor="#e58139"] ;
94 -> 96 ;
97 [label="age <= 33.5\ngini = 0.016\nsamples = 123\nvalue = [122, 1]\nclass = 0", fillcolor="#e5823b"] ;
91 -> 97 ;
98 [label="gini = 0.0\nsamples = 99\nvalue = [99, 0]\nclass = 0", fillcolor="#e58139"] ;
97 -> 98 ;
99 [label="age <= 34.5\ngini = 0.08\nsamples = 24\nvalue = [23, 1]\nclass = 0", fillcolor="#e68642"] ;
97 -> 99 ;
100 [label="bmi <= 27.175\ngini = 0.32\nsamples = 5\nvalue = [4, 1]\nclass = 0", fillcolor="#eca06a"] ;
99 -> 100 ;
101 [label="gini = 0.0\nsamples = 2\nvalue = [2, 0]\nclass = 0", fillcolor="#e58139"] ;
100 -> 101 ;
102 [label="smoking_history <= 1.0\ngini = 0.444\nsamples = 3\nvalue = [2, 1]\nclass = 0", fillcolor="#f2c09c"] ;
100 -> 102 ;
103 [label="gini = 0.0\nsamples = 1\nvalue = [0, 1]\nclass = 1", fillcolor="#399de5"] ;
102 -> 103 ;
104 [label="gini = 0.0\nsamples = 2\nvalue = [2, 0]\nclass = 0", fillcolor="#e58139"] ;
102 -> 104 ;
105 [label="gini = 0.0\nsamples = 19\nvalue = [19, 0]\nclass = 0", fillcolor="#e58139"] ;
99 -> 105 ;
106 [label="bmi <= 27.31\ngini = 0.023\nsamples = 1131\nvalue = [1118, 13]\nclass = 0", fillcolor="#e5823b"] ;
64 -> 106 ;
107 [label="age <= 19.5\ngini = 0.011\nsamples = 732\nvalue = [728, 4]\nclass = 0", fillcolor="#e5823a"] ;
106 -> 107 ;
108 [label="bmi <= 21.635\ngini = 0.026\nsamples = 228\nvalue = [225, 3]\nclass = 0", fillcolor="#e5833c"] ;
107 -> 108 ;
109 [label="gini = 0.0\nsamples = 143\nvalue = [143, 0]\nclass = 0", fillcolor="#e58139"] ;
108 -> 109 ;
110 [label="bmi <= 21.655\ngini = 0.068\nsamples = 85\nvalue = [82, 3]\nclass = 0", fillcolor="#e68640"] ;
108 -> 110 ;
111 [label="gini = 0.0\nsamples = 1\nvalue = [0, 1]\nclass = 1", fillcolor="#399de5"] ;
110 -> 111 ;
112 [label="age <= 17.5\ngini = 0.046\nsamples = 84\nvalue = [82, 2]\nclass = 0", fillcolor="#e6843e"] ;
110 -> 112 ;
113 [label="gini = 0.0\nsamples = 46\nvalue = [46, 0]\nclass = 0", fillcolor="#e58139"] ;
112 -> 113 ;
114 [label="blood_glucose_level <= 180.0\ngini = 0.1\nsamples = 38\nvalue = [36, 2]\nclass = 0", fillcolor="#e68844"] ;
112 -> 114 ;
115 [label="bmi <= 24.32\ngini = 0.064\nsamples = 30\nvalue = [29, 1]\nclass = 0", fillcolor="#e68540"] ;
114 -> 115 ;
116 [label="gini = 0.0\nsamples = 22\nvalue = [22, 0]\nclass = 0", fillcolor="#e58139"] ;
115 -> 116 ;
117 [label="bmi <= 24.495\ngini = 0.219\nsamples = 8\nvalue = [7, 1]\nclass = 0", fillcolor="#e99355"] ;
115 -> 117 ;
118 [label="gini = 0.0\nsamples = 1\nvalue = [0, 1]\nclass = 1", fillcolor="#399de5"] ;
117 -> 118 ;
119 [label="gini = 0.0\nsamples = 7\nvalue = [7, 0]\nclass = 0", fillcolor="#e58139"] ;
117 -> 119 ;
120 [label="bmi <= 22.975\ngini = 0.219\nsamples = 8\nvalue = [7, 1]\nclass = 0", fillcolor="#e99355"] ;
114 -> 120 ;
121 [label="smoking_history <= 1.5\ngini = 0.5\nsamples = 2\nvalue = [1, 1]\nclass = 0", fillcolor="#ffffff"] ;
120 -> 121 ;
122 [label="gini = 0.0\nsamples = 1\nvalue = [0, 1]\nclass = 1", fillcolor="#399de5"] ;
121 -> 122 ;
123 [label="gini = 0.0\nsamples = 1\nvalue = [1, 0]\nclass = 0", fillcolor="#e58139"] ;
121 -> 123 ;
124 [label="gini = 0.0\nsamples = 6\nvalue = [6, 0]\nclass = 0", fillcolor="#e58139"] ;
120 -> 124 ;
125 [label="HbA1c_level <= 6.35\ngini = 0.004\nsamples = 504\nvalue = [503, 1]\nclass = 0", fillcolor="#e58139"] ;
107 -> 125 ;
126 [label="gini = 0.0\nsamples = 359\nvalue = [359, 0]\nclass = 0", fillcolor="#e58139"] ;
125 -> 126 ;
127 [label="smoking_history <= 0.5\ngini = 0.014\nsamples = 145\nvalue = [144, 1]\nclass = 0", fillcolor="#e5823a"] ;
125 -> 127 ;
128 [label="gini = 0.0\nsamples = 105\nvalue = [105, 0]\nclass = 0", fillcolor="#e58139"] ;
127 -> 128 ;
129 [label="smoking_history <= 1.5\ngini = 0.049\nsamples = 40\nvalue = [39, 1]\nclass = 0", fillcolor="#e6843e"] ;
127 -> 129 ;
130 [label="age <= 27.5\ngini = 0.165\nsamples = 11\nvalue = [10, 1]\nclass = 0", fillcolor="#e88e4d"] ;
129 -> 130 ;
131 [label="age <= 26.0\ngini = 0.444\nsamples = 3\nvalue = [2, 1]\nclass = 0", fillcolor="#f2c09c"] ;
130 -> 131 ;
132 [label="gini = 0.0\nsamples = 2\nvalue = [2, 0]\nclass = 0", fillcolor="#e58139"] ;
131 -> 132 ;
133 [label="gini = 0.0\nsamples = 1\nvalue = [0, 1]\nclass = 1", fillcolor="#399de5"] ;
131 -> 133 ;
134 [label="gini = 0.0\nsamples = 8\nvalue = [8, 0]\nclass = 0", fillcolor="#e58139"] ;
130 -> 134 ;
135 [label="gini = 0.0\nsamples = 29\nvalue = [29, 0]\nclass = 0", fillcolor="#e58139"] ;
129 -> 135 ;
136 [label="blood_glucose_level <= 180.0\ngini = 0.044\nsamples = 399\nvalue = [390, 9]\nclass = 0", fillcolor="#e6843e"] ;
106 -> 136 ;
137 [label="age <= 28.5\ngini = 0.06\nsamples = 260\nvalue = [252, 8]\nclass = 0", fillcolor="#e6853f"] ;
136 -> 137 ;
138 [label="age <= 18.5\ngini = 0.038\nsamples = 155\nvalue = [152, 3]\nclass = 0", fillcolor="#e6833d"] ;
137 -> 138 ;
139 [label="blood_glucose_level <= 159.5\ngini = 0.105\nsamples = 36\nvalue = [34, 2]\nclass = 0", fillcolor="#e78845"] ;
138 -> 139 ;
140 [label="gini = 0.0\nsamples = 17\nvalue = [17, 0]\nclass = 0", fillcolor="#e58139"] ;
139 -> 140 ;
141 [label="smoking_history <= 0.5\ngini = 0.188\nsamples = 19\nvalue = [17, 2]\nclass = 0", fillcolor="#e89050"] ;
139 -> 141 ;
142 [label="age <= 17.5\ngini = 0.117\nsamples = 16\nvalue = [15, 1]\nclass = 0", fillcolor="#e78946"] ;
141 -> 142 ;
143 [label="gini = 0.0\nsamples = 12\nvalue = [12, 0]\nclass = 0", fillcolor="#e58139"] ;
142 -> 143 ;
144 [label="HbA1c_level <= 6.4\ngini = 0.375\nsamples = 4\nvalue = [3, 1]\nclass = 0", fillcolor="#eeab7b"] ;
142 -> 144 ;
145 [label="bmi <= 27.955\ngini = 0.5\nsamples = 2\nvalue = [1, 1]\nclass = 0", fillcolor="#ffffff"] ;
144 -> 145 ;
146 [label="gini = 0.0\nsamples = 1\nvalue = [1, 0]\nclass = 0", fillcolor="#e58139"] ;
145 -> 146 ;
147 [label="gini = 0.0\nsamples = 1\nvalue = [0, 1]\nclass = 1", fillcolor="#399de5"] ;
145 -> 147 ;
148 [label="gini = 0.0\nsamples = 2\nvalue = [2, 0]\nclass = 0", fillcolor="#e58139"] ;
144 -> 148 ;
149 [label="HbA1c_level <= 6.0\ngini = 0.444\nsamples = 3\nvalue = [2, 1]\nclass = 0", fillcolor="#f2c09c"] ;
141 -> 149 ;
150 [label="gini = 0.0\nsamples = 1\nvalue = [0, 1]\nclass = 1", fillcolor="#399de5"] ;
149 -> 150 ;
151 [label="gini = 0.0\nsamples = 2\nvalue = [2, 0]\nclass = 0", fillcolor="#e58139"] ;
149 -> 151 ;
152 [label="smoking_history <= 2.5\ngini = 0.017\nsamples = 119\nvalue = [118, 1]\nclass = 0", fillcolor="#e5823b"] ;
138 -> 152 ;
153 [label="gini = 0.0\nsamples = 102\nvalue = [102, 0]\nclass = 0", fillcolor="#e58139"] ;
152 -> 153 ;
154 [label="age <= 22.5\ngini = 0.111\nsamples = 17\nvalue = [16, 1]\nclass = 0", fillcolor="#e78945"] ;
152 -> 154 ;
155 [label="age <= 21.0\ngini = 0.375\nsamples = 4\nvalue = [3, 1]\nclass = 0", fillcolor="#eeab7b"] ;
154 -> 155 ;
156 [label="gini = 0.0\nsamples = 3\nvalue = [3, 0]\nclass = 0", fillcolor="#e58139"] ;
155 -> 156 ;
157 [label="gini = 0.0\nsamples = 1\nvalue = [0, 1]\nclass = 1", fillcolor="#399de5"] ;
155 -> 157 ;
158 [label="gini = 0.0\nsamples = 13\nvalue = [13, 0]\nclass = 0", fillcolor="#e58139"] ;
154 -> 158 ;
159 [label="age <= 36.5\ngini = 0.091\nsamples = 105\nvalue = [100, 5]\nclass = 0", fillcolor="#e68743"] ;
137 -> 159 ;
160 [label="bmi <= 29.54\ngini = 0.111\nsamples = 85\nvalue = [80, 5]\nclass = 0", fillcolor="#e78945"] ;
159 -> 160 ;
161 [label="bmi <= 29.47\ngini = 0.124\nsamples = 75\nvalue = [70, 5]\nclass = 0", fillcolor="#e78a47"] ;
160 -> 161 ;
162 [label="age <= 34.5\ngini = 0.102\nsamples = 74\nvalue = [70, 4]\nclass = 0", fillcolor="#e68844"] ;
161 -> 162 ;
163 [label="smoking_history <= 1.5\ngini = 0.133\nsamples = 56\nvalue = [52, 4]\nclass = 0", fillcolor="#e78b48"] ;
162 -> 163 ;
164 [label="age <= 33.5\ngini = 0.184\nsamples = 39\nvalue = [35, 4]\nclass = 0", fillcolor="#e88f50"] ;
163 -> 164 ;
165 [label="bmi <= 27.735\ngini = 0.137\nsamples = 27\nvalue = [25, 2]\nclass = 0", fillcolor="#e78b49"] ;
164 -> 165 ;
166 [label="HbA1c_level <= 5.75\ngini = 0.08\nsamples = 24\nvalue = [23, 1]\nclass = 0", fillcolor="#e68642"] ;
165 -> 166 ;
167 [label="age <= 32.5\ngini = 0.444\nsamples = 3\nvalue = [2, 1]\nclass = 0", fillcolor="#f2c09c"] ;
166 -> 167 ;
168 [label="gini = 0.0\nsamples = 1\nvalue = [0, 1]\nclass = 1", fillcolor="#399de5"] ;
167 -> 168 ;
169 [label="gini = 0.0\nsamples = 2\nvalue = [2, 0]\nclass = 0", fillcolor="#e58139"] ;
167 -> 169 ;
170 [label="gini = 0.0\nsamples = 21\nvalue = [21, 0]\nclass = 0", fillcolor="#e58139"] ;
166 -> 170 ;
171 [label="blood_glucose_level <= 159.5\ngini = 0.444\nsamples = 3\nvalue = [2, 1]\nclass = 0", fillcolor="#f2c09c"] ;
165 -> 171 ;
172 [label="gini = 0.0\nsamples = 2\nvalue = [2, 0]\nclass = 0", fillcolor="#e58139"] ;
171 -> 172 ;
173 [label="gini = 0.0\nsamples = 1\nvalue = [0, 1]\nclass = 1", fillcolor="#399de5"] ;
171 -> 173 ;
174 [label="HbA1c_level <= 6.55\ngini = 0.278\nsamples = 12\nvalue = [10, 2]\nclass = 0", fillcolor="#ea9a61"] ;
164 -> 174 ;
175 [label="HbA1c_level <= 6.35\ngini = 0.165\nsamples = 11\nvalue = [10, 1]\nclass = 0", fillcolor="#e88e4d"] ;
174 -> 175 ;
176 [label="gini = 0.0\nsamples = 8\nvalue = [8, 0]\nclass = 0", fillcolor="#e58139"] ;
175 -> 176 ;
177 [label="blood_glucose_level <= 159.5\ngini = 0.444\nsamples = 3\nvalue = [2, 1]\nclass = 0", fillcolor="#f2c09c"] ;
175 -> 177 ;
178 [label="gini = 0.0\nsamples = 2\nvalue = [2, 0]\nclass = 0", fillcolor="#e58139"] ;
177 -> 178 ;
179 [label="gini = 0.0\nsamples = 1\nvalue = [0, 1]\nclass = 1", fillcolor="#399de5"] ;
177 -> 179 ;
180 [label="gini = 0.0\nsamples = 1\nvalue = [0, 1]\nclass = 1", fillcolor="#399de5"] ;
174 -> 180 ;
181 [label="gini = 0.0\nsamples = 17\nvalue = [17, 0]\nclass = 0", fillcolor="#e58139"] ;
163 -> 181 ;
182 [label="gini = 0.0\nsamples = 18\nvalue = [18, 0]\nclass = 0", fillcolor="#e58139"] ;
162 -> 182 ;
183 [label="gini = 0.0\nsamples = 1\nvalue = [0, 1]\nclass = 1", fillcolor="#399de5"] ;
161 -> 183 ;
184 [label="gini = 0.0\nsamples = 10\nvalue = [10, 0]\nclass = 0", fillcolor="#e58139"] ;
160 -> 184 ;
185 [label="gini = 0.0\nsamples = 20\nvalue = [20, 0]\nclass = 0", fillcolor="#e58139"] ;
159 -> 185 ;
186 [label="smoking_history <= 2.5\ngini = 0.014\nsamples = 139\nvalue = [138, 1]\nclass = 0", fillcolor="#e5823a"] ;
136 -> 186 ;
187 [label="gini = 0.0\nsamples = 118\nvalue = [118, 0]\nclass = 0", fillcolor="#e58139"] ;
186 -> 187 ;
188 [label="HbA1c_level <= 6.15\ngini = 0.091\nsamples = 21\nvalue = [20, 1]\nclass = 0", fillcolor="#e68743"] ;
186 -> 188 ;
189 [label="gini = 0.0\nsamples = 16\nvalue = [16, 0]\nclass = 0", fillcolor="#e58139"] ;
188 -> 189 ;
190 [label="HbA1c_level <= 6.35\ngini = 0.32\nsamples = 5\nvalue = [4, 1]\nclass = 0", fillcolor="#eca06a"] ;
188 -> 190 ;
191 [label="age <= 28.0\ngini = 0.5\nsamples = 2\nvalue = [1, 1]\nclass = 0", fillcolor="#ffffff"] ;
190 -> 191 ;
192 [label="gini = 0.0\nsamples = 1\nvalue = [1, 0]\nclass = 0", fillcolor="#e58139"] ;
191 -> 192 ;
193 [label="gini = 0.0\nsamples = 1\nvalue = [0, 1]\nclass = 1", fillcolor="#399de5"] ;
191 -> 193 ;
194 [label="gini = 0.0\nsamples = 3\nvalue = [3, 0]\nclass = 0", fillcolor="#e58139"] ;
190 -> 194 ;
195 [label="HbA1c_level <= 6.55\ngini = 0.032\nsamples = 2138\nvalue = [2103, 35]\nclass = 0", fillcolor="#e5833c"] ;
11 -> 195 ;
196 [label="age <= 14.5\ngini = 0.025\nsamples = 1792\nvalue = [1769, 23]\nclass = 0", fillcolor="#e5833c"] ;
195 -> 196 ;
197 [label="gini = 0.0\nsamples = 347\nvalue = [347, 0]\nclass = 0", fillcolor="#e58139"] ;
196 -> 197 ;
198 [label="bmi <= 25.725\ngini = 0.031\nsamples = 1445\nvalue = [1422, 23]\nclass = 0", fillcolor="#e5833c"] ;
196 -> 198 ;
199 [label="bmi <= 25.715\ngini = 0.051\nsamples = 614\nvalue = [598, 16]\nclass = 0", fillcolor="#e6843e"] ;
198 -> 199 ;
200 [label="blood_glucose_level <= 156.5\ngini = 0.048\nsamples = 612\nvalue = [597, 15]\nclass = 0", fillcolor="#e6843e"] ;
199 -> 200 ;
201 [label="age <= 22.5\ngini = 0.061\nsamples = 347\nvalue = [336, 11]\nclass = 0", fillcolor="#e6853f"] ;
200 -> 201 ;
202 [label="smoking_history <= 2.5\ngini = 0.012\nsamples = 166\nvalue = [165, 1]\nclass = 0", fillcolor="#e5823a"] ;
201 -> 202 ;
203 [label="gini = 0.0\nsamples = 149\nvalue = [149, 0]\nclass = 0", fillcolor="#e58139"] ;
202 -> 203 ;
204 [label="HbA1c_level <= 6.15\ngini = 0.111\nsamples = 17\nvalue = [16, 1]\nclass = 0", fillcolor="#e78945"] ;
202 -> 204 ;
205 [label="gini = 0.0\nsamples = 13\nvalue = [13, 0]\nclass = 0", fillcolor="#e58139"] ;
204 -> 205 ;
206 [label="HbA1c_level <= 6.35\ngini = 0.375\nsamples = 4\nvalue = [3, 1]\nclass = 0", fillcolor="#eeab7b"] ;
204 -> 206 ;
207 [label="gini = 0.0\nsamples = 1\nvalue = [0, 1]\nclass = 1", fillcolor="#399de5"] ;
206 -> 207 ;
208 [label="gini = 0.0\nsamples = 3\nvalue = [3, 0]\nclass = 0", fillcolor="#e58139"] ;
206 -> 208 ;
209 [label="HbA1c_level <= 6.05\ngini = 0.104\nsamples = 181\nvalue = [171, 10]\nclass = 0", fillcolor="#e78845"] ;
201 -> 209 ;
210 [label="bmi <= 24.12\ngini = 0.056\nsamples = 104\nvalue = [101, 3]\nclass = 0", fillcolor="#e6853f"] ;
209 -> 210 ;
211 [label="bmi <= 24.06\ngini = 0.091\nsamples = 63\nvalue = [60, 3]\nclass = 0", fillcolor="#e68743"] ;
210 -> 211 ;
212 [label="bmi <= 23.895\ngini = 0.062\nsamples = 62\nvalue = [60, 2]\nclass = 0", fillcolor="#e68540"] ;
211 -> 212 ;
213 [label="blood_glucose_level <= 150.0\ngini = 0.033\nsamples = 59\nvalue = [58, 1]\nclass = 0", fillcolor="#e5833c"] ;
212 -> 213 ;
214 [label="gini = 0.0\nsamples = 44\nvalue = [44, 0]\nclass = 0", fillcolor="#e58139"] ;
213 -> 214 ;
215 [label="HbA1c_level <= 5.75\ngini = 0.124\nsamples = 15\nvalue = [14, 1]\nclass = 0", fillcolor="#e78a47"] ;
213 -> 215 ;
216 [label="age <= 27.5\ngini = 0.375\nsamples = 4\nvalue = [3, 1]\nclass = 0", fillcolor="#eeab7b"] ;
215 -> 216 ;
217 [label="smoking_history <= 1.5\ngini = 0.5\nsamples = 2\nvalue = [1, 1]\nclass = 0", fillcolor="#ffffff"] ;
216 -> 217 ;
218 [label="gini = 0.0\nsamples = 1\nvalue = [0, 1]\nclass = 1", fillcolor="#399de5"] ;
217 -> 218 ;
219 [label="gini = 0.0\nsamples = 1\nvalue = [1, 0]\nclass = 0", fillcolor="#e58139"] ;
217 -> 219 ;
220 [label="gini = 0.0\nsamples = 2\nvalue = [2, 0]\nclass = 0", fillcolor="#e58139"] ;
216 -> 220 ;
221 [label="gini = 0.0\nsamples = 11\nvalue = [11, 0]\nclass = 0", fillcolor="#e58139"] ;
215 -> 221 ;
222 [label="HbA1c_level <= 5.75\ngini = 0.444\nsamples = 3\nvalue = [2, 1]\nclass = 0", fillcolor="#f2c09c"] ;
212 -> 222 ;
223 [label="gini = 0.0\nsamples = 1\nvalue = [0, 1]\nclass = 1", fillcolor="#399de5"] ;
222 -> 223 ;
224 [label="gini = 0.0\nsamples = 2\nvalue = [2, 0]\nclass = 0", fillcolor="#e58139"] ;
222 -> 224 ;
225 [label="gini = 0.0\nsamples = 1\nvalue = [0, 1]\nclass = 1", fillcolor="#399de5"] ;
211 -> 225 ;
226 [label="gini = 0.0\nsamples = 41\nvalue = [41, 0]\nclass = 0", fillcolor="#e58139"] ;
210 -> 226 ;
227 [label="smoking_history <= 0.5\ngini = 0.165\nsamples = 77\nvalue = [70, 7]\nclass = 0", fillcolor="#e88e4d"] ;
209 -> 227 ;
228 [label="age <= 24.5\ngini = 0.093\nsamples = 41\nvalue = [39, 2]\nclass = 0", fillcolor="#e68743"] ;
227 -> 228 ;
229 [label="bmi <= 22.575\ngini = 0.375\nsamples = 8\nvalue = [6, 2]\nclass = 0", fillcolor="#eeab7b"] ;
228 -> 229 ;
230 [label="age <= 23.5\ngini = 0.444\nsamples = 3\nvalue = [1, 2]\nclass = 1", fillcolor="#9ccef2"] ;
229 -> 230 ;
231 [label="gini = 0.0\nsamples = 1\nvalue = [0, 1]\nclass = 1", fillcolor="#399de5"] ;
230 -> 231 ;
232 [label="blood_glucose_level <= 142.5\ngini = 0.5\nsamples = 2\nvalue = [1, 1]\nclass = 0", fillcolor="#ffffff"] ;
230 -> 232 ;
233 [label="gini = 0.0\nsamples = 1\nvalue = [1, 0]\nclass = 0", fillcolor="#e58139"] ;
232 -> 233 ;
234 [label="gini = 0.0\nsamples = 1\nvalue = [0, 1]\nclass = 1", fillcolor="#399de5"] ;
232 -> 234 ;
235 [label="gini = 0.0\nsamples = 5\nvalue = [5, 0]\nclass = 0", fillcolor="#e58139"] ;
229 -> 235 ;
236 [label="gini = 0.0\nsamples = 33\nvalue = [33, 0]\nclass = 0", fillcolor="#e58139"] ;
228 -> 236 ;
237 [label="smoking_history <= 1.5\ngini = 0.239\nsamples = 36\nvalue = [31, 5]\nclass = 0", fillcolor="#e99559"] ;
227 -> 237 ;
238 [label="gini = 0.0\nsamples = 1\nvalue = [0, 1]\nclass = 1", fillcolor="#399de5"] ;
237 -> 238 ;
239 [label="age <= 37.5\ngini = 0.202\nsamples = 35\nvalue = [31, 4]\nclass = 0", fillcolor="#e89153"] ;
237 -> 239 ;
240 [label="bmi <= 23.78\ngini = 0.161\nsamples = 34\nvalue = [31, 3]\nclass = 0", fillcolor="#e88d4c"] ;
239 -> 240 ;
241 [label="gini = 0.0\nsamples = 22\nvalue = [22, 0]\nclass = 0", fillcolor="#e58139"] ;
240 -> 241 ;
242 [label="bmi <= 23.87\ngini = 0.375\nsamples = 12\nvalue = [9, 3]\nclass = 0", fillcolor="#eeab7b"] ;
240 -> 242 ;
243 [label="gini = 0.0\nsamples = 1\nvalue = [0, 1]\nclass = 1", fillcolor="#399de5"] ;
242 -> 243 ;
244 [label="blood_glucose_level <= 135.0\ngini = 0.298\nsamples = 11\nvalue = [9, 2]\nclass = 0", fillcolor="#eb9d65"] ;
242 -> 244 ;
245 [label="age <= 34.5\ngini = 0.444\nsamples = 6\nvalue = [4, 2]\nclass = 0", fillcolor="#f2c09c"] ;
244 -> 245 ;
246 [label="age <= 26.5\ngini = 0.5\nsamples = 4\nvalue = [2, 2]\nclass = 0", fillcolor="#ffffff"] ;
245 -> 246 ;
247 [label="gini = 0.0\nsamples = 1\nvalue = [1, 0]\nclass = 0", fillcolor="#e58139"] ;
246 -> 247 ;
248 [label="HbA1c_level <= 6.35\ngini = 0.444\nsamples = 3\nvalue = [1, 2]\nclass = 1", fillcolor="#9ccef2"] ;
246 -> 248 ;
249 [label="gini = 0.0\nsamples = 2\nvalue = [0, 2]\nclass = 1", fillcolor="#399de5"] ;
248 -> 249 ;
250 [label="gini = 0.0\nsamples = 1\nvalue = [1, 0]\nclass = 0", fillcolor="#e58139"] ;
248 -> 250 ;
251 [label="gini = 0.0\nsamples = 2\nvalue = [2, 0]\nclass = 0", fillcolor="#e58139"] ;
245 -> 251 ;
252 [label="gini = 0.0\nsamples = 5\nvalue = [5, 0]\nclass = 0", fillcolor="#e58139"] ;
244 -> 252 ;
253 [label="gini = 0.0\nsamples = 1\nvalue = [0, 1]\nclass = 1", fillcolor="#399de5"] ;
239 -> 253 ;
254 [label="age <= 16.5\ngini = 0.03\nsamples = 265\nvalue = [261, 4]\nclass = 0", fillcolor="#e5833c"] ;
200 -> 254 ;
255 [label="HbA1c_level <= 5.9\ngini = 0.198\nsamples = 27\nvalue = [24, 3]\nclass = 0", fillcolor="#e89152"] ;
254 -> 255 ;
256 [label="HbA1c_level <= 5.75\ngini = 0.444\nsamples = 6\nvalue = [4, 2]\nclass = 0", fillcolor="#f2c09c"] ;
255 -> 256 ;
257 [label="bmi <= 22.66\ngini = 0.32\nsamples = 5\nvalue = [4, 1]\nclass = 0", fillcolor="#eca06a"] ;
256 -> 257 ;
258 [label="gini = 0.0\nsamples = 2\nvalue = [2, 0]\nclass = 0", fillcolor="#e58139"] ;
257 -> 258 ;
259 [label="bmi <= 23.32\ngini = 0.444\nsamples = 3\nvalue = [2, 1]\nclass = 0", fillcolor="#f2c09c"] ;
257 -> 259 ;
260 [label="gini = 0.0\nsamples = 1\nvalue = [0, 1]\nclass = 1", fillcolor="#399de5"] ;
259 -> 260 ;
261 [label="gini = 0.0\nsamples = 2\nvalue = [2, 0]\nclass = 0", fillcolor="#e58139"] ;
259 -> 261 ;
262 [label="gini = 0.0\nsamples = 1\nvalue = [0, 1]\nclass = 1", fillcolor="#399de5"] ;
256 -> 262 ;
263 [label="blood_glucose_level <= 180.0\ngini = 0.091\nsamples = 21\nvalue = [20, 1]\nclass = 0", fillcolor="#e68743"] ;
255 -> 263 ;
264 [label="gini = 0.0\nsamples = 18\nvalue = [18, 0]\nclass = 0", fillcolor="#e58139"] ;
263 -> 264 ;
265 [label="HbA1c_level <= 6.3\ngini = 0.444\nsamples = 3\nvalue = [2, 1]\nclass = 0", fillcolor="#f2c09c"] ;
263 -> 265 ;
266 [label="gini = 0.0\nsamples = 2\nvalue = [2, 0]\nclass = 0", fillcolor="#e58139"] ;
265 -> 266 ;
267 [label="gini = 0.0\nsamples = 1\nvalue = [0, 1]\nclass = 1", fillcolor="#399de5"] ;
265 -> 267 ;
268 [label="bmi <= 25.055\ngini = 0.008\nsamples = 238\nvalue = [237, 1]\nclass = 0", fillcolor="#e5823a"] ;
254 -> 268 ;
269 [label="gini = 0.0\nsamples = 215\nvalue = [215, 0]\nclass = 0", fillcolor="#e58139"] ;
268 -> 269 ;
270 [label="bmi <= 25.085\ngini = 0.083\nsamples = 23\nvalue = [22, 1]\nclass = 0", fillcolor="#e68742"] ;
268 -> 270 ;
271 [label="gini = 0.0\nsamples = 1\nvalue = [0, 1]\nclass = 1", fillcolor="#399de5"] ;
270 -> 271 ;
272 [label="gini = 0.0\nsamples = 22\nvalue = [22, 0]\nclass = 0", fillcolor="#e58139"] ;
270 -> 272 ;
273 [label="smoking_history <= 1.0\ngini = 0.5\nsamples = 2\nvalue = [1, 1]\nclass = 0", fillcolor="#ffffff"] ;
199 -> 273 ;
274 [label="gini = 0.0\nsamples = 1\nvalue = [1, 0]\nclass = 0", fillcolor="#e58139"] ;
273 -> 274 ;
275 [label="gini = 0.0\nsamples = 1\nvalue = [0, 1]\nclass = 1", fillcolor="#399de5"] ;
273 -> 275 ;
276 [label="age <= 37.5\ngini = 0.017\nsamples = 831\nvalue = [824, 7]\nclass = 0", fillcolor="#e5823b"] ;
198 -> 276 ;
277 [label="smoking_history <= 1.5\ngini = 0.013\nsamples = 779\nvalue = [774, 5]\nclass = 0", fillcolor="#e5823a"] ;
276 -> 277 ;
278 [label="smoking_history <= 0.5\ngini = 0.02\nsamples = 503\nvalue = [498, 5]\nclass = 0", fillcolor="#e5823b"] ;
277 -> 278 ;
279 [label="blood_glucose_level <= 158.5\ngini = 0.01\nsamples = 413\nvalue = [411, 2]\nclass = 0", fillcolor="#e5823a"] ;
278 -> 279 ;
280 [label="gini = 0.0\nsamples = 258\nvalue = [258, 0]\nclass = 0", fillcolor="#e58139"] ;
279 -> 280 ;
281 [label="age <= 29.5\ngini = 0.025\nsamples = 155\nvalue = [153, 2]\nclass = 0", fillcolor="#e5833c"] ;
279 -> 281 ;
282 [label="age <= 28.5\ngini = 0.043\nsamples = 92\nvalue = [90, 2]\nclass = 0", fillcolor="#e6843d"] ;
281 -> 282 ;
283 [label="bmi <= 28.585\ngini = 0.023\nsamples = 86\nvalue = [85, 1]\nclass = 0", fillcolor="#e5823b"] ;
282 -> 283 ;
284 [label="gini = 0.0\nsamples = 68\nvalue = [68, 0]\nclass = 0", fillcolor="#e58139"] ;
283 -> 284 ;
285 [label="bmi <= 28.665\ngini = 0.105\nsamples = 18\nvalue = [17, 1]\nclass = 0", fillcolor="#e78845"] ;
283 -> 285 ;
286 [label="gini = 0.0\nsamples = 1\nvalue = [0, 1]\nclass = 1", fillcolor="#399de5"] ;
285 -> 286 ;
287 [label="gini = 0.0\nsamples = 17\nvalue = [17, 0]\nclass = 0", fillcolor="#e58139"] ;
285 -> 287 ;
288 [label="blood_glucose_level <= 159.5\ngini = 0.278\nsamples = 6\nvalue = [5, 1]\nclass = 0", fillcolor="#ea9a61"] ;
282 -> 288 ;
289 [label="gini = 0.0\nsamples = 1\nvalue = [0, 1]\nclass = 1", fillcolor="#399de5"] ;
288 -> 289 ;
290 [label="gini = 0.0\nsamples = 5\nvalue = [5, 0]\nclass = 0", fillcolor="#e58139"] ;
288 -> 290 ;
291 [label="gini = 0.0\nsamples = 63\nvalue = [63, 0]\nclass = 0", fillcolor="#e58139"] ;
281 -> 291 ;
292 [label="age <= 28.5\ngini = 0.064\nsamples = 90\nvalue = [87, 3]\nclass = 0", fillcolor="#e68540"] ;
278 -> 292 ;
293 [label="gini = 0.0\nsamples = 51\nvalue = [51, 0]\nclass = 0", fillcolor="#e58139"] ;
292 -> 293 ;
294 [label="age <= 29.5\ngini = 0.142\nsamples = 39\nvalue = [36, 3]\nclass = 0", fillcolor="#e78c49"] ;
292 -> 294 ;
295 [label="blood_glucose_level <= 128.0\ngini = 0.444\nsamples = 3\nvalue = [2, 1]\nclass = 0", fillcolor="#f2c09c"] ;
294 -> 295 ;
296 [label="gini = 0.0\nsamples = 1\nvalue = [0, 1]\nclass = 1", fillcolor="#399de5"] ;
295 -> 296 ;
297 [label="gini = 0.0\nsamples = 2\nvalue = [2, 0]\nclass = 0", fillcolor="#e58139"] ;
295 -> 297 ;
298 [label="blood_glucose_level <= 150.0\ngini = 0.105\nsamples = 36\nvalue = [34, 2]\nclass = 0", fillcolor="#e78845"] ;
294 -> 298 ;
299 [label="gini = 0.0\nsamples = 18\nvalue = [18, 0]\nclass = 0", fillcolor="#e58139"] ;
298 -> 299 ;
300 [label="age <= 32.5\ngini = 0.198\nsamples = 18\nvalue = [16, 2]\nclass = 0", fillcolor="#e89152"] ;
298 -> 300 ;
301 [label="gini = 0.0\nsamples = 9\nvalue = [9, 0]\nclass = 0", fillcolor="#e58139"] ;
300 -> 301 ;
302 [label="age <= 35.5\ngini = 0.346\nsamples = 9\nvalue = [7, 2]\nclass = 0", fillcolor="#eca572"] ;
300 -> 302 ;
303 [label="age <= 34.5\ngini = 0.48\nsamples = 5\nvalue = [3, 2]\nclass = 0", fillcolor="#f6d5bd"] ;
302 -> 303 ;
304 [label="age <= 33.5\ngini = 0.375\nsamples = 4\nvalue = [3, 1]\nclass = 0", fillcolor="#eeab7b"] ;
303 -> 304 ;
305 [label="heart_disease <= 0.5\ngini = 0.5\nsamples = 2\nvalue = [1, 1]\nclass = 0", fillcolor="#ffffff"] ;
304 -> 305 ;
306 [label="gini = 0.0\nsamples = 1\nvalue = [0, 1]\nclass = 1", fillcolor="#399de5"] ;
305 -> 306 ;
307 [label="gini = 0.0\nsamples = 1\nvalue = [1, 0]\nclass = 0", fillcolor="#e58139"] ;
305 -> 307 ;
308 [label="gini = 0.0\nsamples = 2\nvalue = [2, 0]\nclass = 0", fillcolor="#e58139"] ;
304 -> 308 ;
309 [label="gini = 0.0\nsamples = 1\nvalue = [0, 1]\nclass = 1", fillcolor="#399de5"] ;
303 -> 309 ;
310 [label="gini = 0.0\nsamples = 4\nvalue = [4, 0]\nclass = 0", fillcolor="#e58139"] ;
302 -> 310 ;
311 [label="gini = 0.0\nsamples = 276\nvalue = [276, 0]\nclass = 0", fillcolor="#e58139"] ;
277 -> 311 ;
312 [label="bmi <= 26.725\ngini = 0.074\nsamples = 52\nvalue = [50, 2]\nclass = 0", fillcolor="#e68641"] ;
276 -> 312 ;
313 [label="bmi <= 26.495\ngini = 0.32\nsamples = 5\nvalue = [4, 1]\nclass = 0", fillcolor="#eca06a"] ;
312 -> 313 ;
314 [label="gini = 0.0\nsamples = 4\nvalue = [4, 0]\nclass = 0", fillcolor="#e58139"] ;
313 -> 314 ;
315 [label="gini = 0.0\nsamples = 1\nvalue = [0, 1]\nclass = 1", fillcolor="#399de5"] ;
313 -> 315 ;
316 [label="blood_glucose_level <= 150.0\ngini = 0.042\nsamples = 47\nvalue = [46, 1]\nclass = 0", fillcolor="#e6843d"] ;
312 -> 316 ;
317 [label="gini = 0.0\nsamples = 25\nvalue = [25, 0]\nclass = 0", fillcolor="#e58139"] ;
316 -> 317 ;
318 [label="blood_glucose_level <= 156.5\ngini = 0.087\nsamples = 22\nvalue = [21, 1]\nclass = 0", fillcolor="#e68742"] ;
316 -> 318 ;
319 [label="bmi <= 28.46\ngini = 0.5\nsamples = 2\nvalue = [1, 1]\nclass = 0", fillcolor="#ffffff"] ;
318 -> 319 ;
320 [label="gini = 0.0\nsamples = 1\nvalue = [0, 1]\nclass = 1", fillcolor="#399de5"] ;
319 -> 320 ;
321 [label="gini = 0.0\nsamples = 1\nvalue = [1, 0]\nclass = 0", fillcolor="#e58139"] ;
319 -> 321 ;
322 [label="gini = 0.0\nsamples = 20\nvalue = [20, 0]\nclass = 0", fillcolor="#e58139"] ;
318 -> 322 ;
323 [label="bmi <= 21.575\ngini = 0.067\nsamples = 346\nvalue = [334, 12]\nclass = 0", fillcolor="#e68640"] ;
195 -> 323 ;
324 [label="gini = 0.0\nsamples = 75\nvalue = [75, 0]\nclass = 0", fillcolor="#e58139"] ;
323 -> 324 ;
325 [label="bmi <= 21.655\ngini = 0.085\nsamples = 271\nvalue = [259, 12]\nclass = 0", fillcolor="#e68742"] ;
323 -> 325 ;
326 [label="gini = 0.0\nsamples = 1\nvalue = [0, 1]\nclass = 1", fillcolor="#399de5"] ;
325 -> 326 ;
327 [label="bmi <= 22.19\ngini = 0.078\nsamples = 270\nvalue = [259, 11]\nclass = 0", fillcolor="#e68641"] ;
325 -> 327 ;
328 [label="age <= 15.0\ngini = 0.346\nsamples = 9\nvalue = [7, 2]\nclass = 0", fillcolor="#eca572"] ;
327 -> 328 ;
329 [label="gini = 0.0\nsamples = 1\nvalue = [0, 1]\nclass = 1", fillcolor="#399de5"] ;
328 -> 329 ;
330 [label="blood_glucose_level <= 151.5\ngini = 0.219\nsamples = 8\nvalue = [7, 1]\nclass = 0", fillcolor="#e99355"] ;
328 -> 330 ;
331 [label="age <= 21.0\ngini = 0.444\nsamples = 3\nvalue = [2, 1]\nclass = 0", fillcolor="#f2c09c"] ;
330 -> 331 ;
332 [label="gini = 0.0\nsamples = 1\nvalue = [0, 1]\nclass = 1", fillcolor="#399de5"] ;
331 -> 332 ;
333 [label="gini = 0.0\nsamples = 2\nvalue = [2, 0]\nclass = 0", fillcolor="#e58139"] ;
331 -> 333 ;
334 [label="gini = 0.0\nsamples = 5\nvalue = [5, 0]\nclass = 0", fillcolor="#e58139"] ;
330 -> 334 ;
335 [label="age <= 31.5\ngini = 0.067\nsamples = 261\nvalue = [252, 9]\nclass = 0", fillcolor="#e68640"] ;
327 -> 335 ;
336 [label="smoking_history <= 0.5\ngini = 0.043\nsamples = 180\nvalue = [176, 4]\nclass = 0", fillcolor="#e6843d"] ;
335 -> 336 ;
337 [label="blood_glucose_level <= 159.5\ngini = 0.061\nsamples = 128\nvalue = [124, 4]\nclass = 0", fillcolor="#e6853f"] ;
336 -> 337 ;
338 [label="blood_glucose_level <= 128.0\ngini = 0.04\nsamples = 99\nvalue = [97, 2]\nclass = 0", fillcolor="#e6843d"] ;
337 -> 338 ;
339 [label="bmi <= 23.825\ngini = 0.133\nsamples = 14\nvalue = [13, 1]\nclass = 0", fillcolor="#e78b48"] ;
338 -> 339 ;
340 [label="bmi <= 23.29\ngini = 0.375\nsamples = 4\nvalue = [3, 1]\nclass = 0", fillcolor="#eeab7b"] ;
339 -> 340 ;
341 [label="gini = 0.0\nsamples = 3\nvalue = [3, 0]\nclass = 0", fillcolor="#e58139"] ;
340 -> 341 ;
342 [label="gini = 0.0\nsamples = 1\nvalue = [0, 1]\nclass = 1", fillcolor="#399de5"] ;
340 -> 342 ;
343 [label="gini = 0.0\nsamples = 10\nvalue = [10, 0]\nclass = 0", fillcolor="#e58139"] ;
339 -> 343 ;
344 [label="age <= 26.5\ngini = 0.023\nsamples = 85\nvalue = [84, 1]\nclass = 0", fillcolor="#e5823b"] ;
338 -> 344 ;
345 [label="gini = 0.0\nsamples = 59\nvalue = [59, 0]\nclass = 0", fillcolor="#e58139"] ;
344 -> 345 ;
346 [label="age <= 27.5\ngini = 0.074\nsamples = 26\nvalue = [25, 1]\nclass = 0", fillcolor="#e68641"] ;
344 -> 346 ;
347 [label="blood_glucose_level <= 151.5\ngini = 0.278\nsamples = 6\nvalue = [5, 1]\nclass = 0", fillcolor="#ea9a61"] ;
346 -> 347 ;
348 [label="blood_glucose_level <= 142.5\ngini = 0.444\nsamples = 3\nvalue = [2, 1]\nclass = 0", fillcolor="#f2c09c"] ;
347 -> 348 ;
349 [label="gini = 0.0\nsamples = 2\nvalue = [2, 0]\nclass = 0", fillcolor="#e58139"] ;
348 -> 349 ;
350 [label="gini = 0.0\nsamples = 1\nvalue = [0, 1]\nclass = 1", fillcolor="#399de5"] ;
348 -> 350 ;
351 [label="gini = 0.0\nsamples = 3\nvalue = [3, 0]\nclass = 0", fillcolor="#e58139"] ;
347 -> 351 ;
352 [label="gini = 0.0\nsamples = 20\nvalue = [20, 0]\nclass = 0", fillcolor="#e58139"] ;
346 -> 352 ;
353 [label="blood_glucose_level <= 180.0\ngini = 0.128\nsamples = 29\nvalue = [27, 2]\nclass = 0", fillcolor="#e78a48"] ;
337 -> 353 ;
354 [label="bmi <= 24.33\ngini = 0.26\nsamples = 13\nvalue = [11, 2]\nclass = 0", fillcolor="#ea985d"] ;
353 -> 354 ;
355 [label="bmi <= 23.245\ngini = 0.5\nsamples = 2\nvalue = [1, 1]\nclass = 0", fillcolor="#ffffff"] ;
354 -> 355 ;
356 [label="gini = 0.0\nsamples = 1\nvalue = [1, 0]\nclass = 0", fillcolor="#e58139"] ;
355 -> 356 ;
357 [label="gini = 0.0\nsamples = 1\nvalue = [0, 1]\nclass = 1", fillcolor="#399de5"] ;
355 -> 357 ;
358 [label="age <= 25.5\ngini = 0.165\nsamples = 11\nvalue = [10, 1]\nclass = 0", fillcolor="#e88e4d"] ;
354 -> 358 ;
359 [label="gini = 0.0\nsamples = 8\nvalue = [8, 0]\nclass = 0", fillcolor="#e58139"] ;
358 -> 359 ;
360 [label="age <= 27.5\ngini = 0.444\nsamples = 3\nvalue = [2, 1]\nclass = 0", fillcolor="#f2c09c"] ;
358 -> 360 ;
361 [label="gini = 0.0\nsamples = 1\nvalue = [0, 1]\nclass = 1", fillcolor="#399de5"] ;
360 -> 361 ;
362 [label="gini = 0.0\nsamples = 2\nvalue = [2, 0]\nclass = 0", fillcolor="#e58139"] ;
360 -> 362 ;
363 [label="gini = 0.0\nsamples = 16\nvalue = [16, 0]\nclass = 0", fillcolor="#e58139"] ;
353 -> 363 ;
364 [label="gini = 0.0\nsamples = 52\nvalue = [52, 0]\nclass = 0", fillcolor="#e58139"] ;
336 -> 364 ;
365 [label="bmi <= 23.8\ngini = 0.116\nsamples = 81\nvalue = [76, 5]\nclass = 0", fillcolor="#e78946"] ;
335 -> 365 ;
366 [label="bmi <= 23.555\ngini = 0.444\nsamples = 3\nvalue = [2, 1]\nclass = 0", fillcolor="#f2c09c"] ;
365 -> 366 ;
367 [label="gini = 0.0\nsamples = 2\nvalue = [2, 0]\nclass = 0", fillcolor="#e58139"] ;
366 -> 367 ;
368 [label="gini = 0.0\nsamples = 1\nvalue = [0, 1]\nclass = 1", fillcolor="#399de5"] ;
366 -> 368 ;
369 [label="age <= 32.5\ngini = 0.097\nsamples = 78\nvalue = [74, 4]\nclass = 0", fillcolor="#e68844"] ;
365 -> 369 ;
370 [label="blood_glucose_level <= 128.0\ngini = 0.245\nsamples = 14\nvalue = [12, 2]\nclass = 0", fillcolor="#e9965a"] ;
369 -> 370 ;
371 [label="bmi <= 25.805\ngini = 0.5\nsamples = 2\nvalue = [1, 1]\nclass = 0", fillcolor="#ffffff"] ;
370 -> 371 ;
372 [label="gini = 0.0\nsamples = 1\nvalue = [1, 0]\nclass = 0", fillcolor="#e58139"] ;
371 -> 372 ;
373 [label="gini = 0.0\nsamples = 1\nvalue = [0, 1]\nclass = 1", fillcolor="#399de5"] ;
371 -> 373 ;
374 [label="bmi <= 29.29\ngini = 0.153\nsamples = 12\nvalue = [11, 1]\nclass = 0", fillcolor="#e78c4b"] ;
370 -> 374 ;
375 [label="gini = 0.0\nsamples = 10\nvalue = [10, 0]\nclass = 0", fillcolor="#e58139"] ;
374 -> 375 ;
376 [label="bmi <= 29.97\ngini = 0.5\nsamples = 2\nvalue = [1, 1]\nclass = 0", fillcolor="#ffffff"] ;
374 -> 376 ;
377 [label="gini = 0.0\nsamples = 1\nvalue = [0, 1]\nclass = 1", fillcolor="#399de5"] ;
376 -> 377 ;
378 [label="gini = 0.0\nsamples = 1\nvalue = [1, 0]\nclass = 0", fillcolor="#e58139"] ;
376 -> 378 ;
379 [label="blood_glucose_level <= 158.5\ngini = 0.061\nsamples = 64\nvalue = [62, 2]\nclass = 0", fillcolor="#e6853f"] ;
369 -> 379 ;
380 [label="gini = 0.0\nsamples = 45\nvalue = [45, 0]\nclass = 0", fillcolor="#e58139"] ;
379 -> 380 ;
381 [label="blood_glucose_level <= 159.5\ngini = 0.188\nsamples = 19\nvalue = [17, 2]\nclass = 0", fillcolor="#e89050"] ;
379 -> 381 ;
382 [label="age <= 35.0\ngini = 0.444\nsamples = 3\nvalue = [2, 1]\nclass = 0", fillcolor="#f2c09c"] ;
381 -> 382 ;
383 [label="gini = 0.0\nsamples = 1\nvalue = [1, 0]\nclass = 0", fillcolor="#e58139"] ;
382 -> 383 ;
384 [label="bmi <= 28.13\ngini = 0.5\nsamples = 2\nvalue = [1, 1]\nclass = 0", fillcolor="#ffffff"] ;
382 -> 384 ;
385 [label="gini = 0.0\nsamples = 1\nvalue = [0, 1]\nclass = 1", fillcolor="#399de5"] ;
384 -> 385 ;
386 [label="gini = 0.0\nsamples = 1\nvalue = [1, 0]\nclass = 0", fillcolor="#e58139"] ;
384 -> 386 ;
387 [label="bmi <= 28.06\ngini = 0.117\nsamples = 16\nvalue = [15, 1]\nclass = 0", fillcolor="#e78946"] ;
381 -> 387 ;
388 [label="gini = 0.0\nsamples = 11\nvalue = [11, 0]\nclass = 0", fillcolor="#e58139"] ;
387 -> 388 ;
389 [label="bmi <= 28.44\ngini = 0.32\nsamples = 5\nvalue = [4, 1]\nclass = 0", fillcolor="#eca06a"] ;
387 -> 389 ;
390 [label="gini = 0.0\nsamples = 1\nvalue = [0, 1]\nclass = 1", fillcolor="#399de5"] ;
389 -> 390 ;
391 [label="gini = 0.0\nsamples = 4\nvalue = [4, 0]\nclass = 0", fillcolor="#e58139"] ;
389 -> 391 ;
392 [label="bmi <= 30.735\ngini = 0.064\nsamples = 970\nvalue = [938, 32]\nclass = 0", fillcolor="#e68540"] ;
10 -> 392 ;
393 [label="age <= 28.5\ngini = 0.444\nsamples = 3\nvalue = [1, 2]\nclass = 1", fillcolor="#9ccef2"] ;
392 -> 393 ;
394 [label="gini = 0.0\nsamples = 1\nvalue = [1, 0]\nclass = 0", fillcolor="#e58139"] ;
393 -> 394 ;
395 [label="gini = 0.0\nsamples = 2\nvalue = [0, 2]\nclass = 1", fillcolor="#399de5"] ;
393 -> 395 ;
396 [label="age <= 27.5\ngini = 0.06\nsamples = 967\nvalue = [937, 30]\nclass = 0", fillcolor="#e6853f"] ;
392 -> 396 ;
397 [label="blood_glucose_level <= 128.0\ngini = 0.021\nsamples = 385\nvalue = [381, 4]\nclass = 0", fillcolor="#e5823b"] ;
396 -> 397 ;
398 [label="bmi <= 31.6\ngini = 0.108\nsamples = 35\nvalue = [33, 2]\nclass = 0", fillcolor="#e78945"] ;
397 -> 398 ;
399 [label="bmi <= 31.53\ngini = 0.5\nsamples = 2\nvalue = [1, 1]\nclass = 0", fillcolor="#ffffff"] ;
398 -> 399 ;
400 [label="gini = 0.0\nsamples = 1\nvalue = [1, 0]\nclass = 0", fillcolor="#e58139"] ;
399 -> 400 ;
401 [label="gini = 0.0\nsamples = 1\nvalue = [0, 1]\nclass = 1", fillcolor="#399de5"] ;
399 -> 401 ;
402 [label="bmi <= 36.56\ngini = 0.059\nsamples = 33\nvalue = [32, 1]\nclass = 0", fillcolor="#e6853f"] ;
398 -> 402 ;
403 [label="gini = 0.0\nsamples = 23\nvalue = [23, 0]\nclass = 0", fillcolor="#e58139"] ;
402 -> 403 ;
404 [label="bmi <= 36.88\ngini = 0.18\nsamples = 10\nvalue = [9, 1]\nclass = 0", fillcolor="#e88f4f"] ;
402 -> 404 ;
405 [label="gini = 0.0\nsamples = 1\nvalue = [0, 1]\nclass = 1", fillcolor="#399de5"] ;
404 -> 405 ;
406 [label="gini = 0.0\nsamples = 9\nvalue = [9, 0]\nclass = 0", fillcolor="#e58139"] ;
404 -> 406 ;
407 [label="blood_glucose_level <= 142.5\ngini = 0.011\nsamples = 350\nvalue = [348, 2]\nclass = 0", fillcolor="#e5823a"] ;
397 -> 407 ;
408 [label="age <= 26.5\ngini = 0.042\nsamples = 93\nvalue = [91, 2]\nclass = 0", fillcolor="#e6843d"] ;
407 -> 408 ;
409 [label="bmi <= 31.455\ngini = 0.024\nsamples = 83\nvalue = [82, 1]\nclass = 0", fillcolor="#e5833b"] ;
408 -> 409 ;
410 [label="bmi <= 31.345\ngini = 0.18\nsamples = 10\nvalue = [9, 1]\nclass = 0", fillcolor="#e88f4f"] ;
409 -> 410 ;
411 [label="gini = 0.0\nsamples = 9\nvalue = [9, 0]\nclass = 0", fillcolor="#e58139"] ;
410 -> 411 ;
412 [label="gini = 0.0\nsamples = 1\nvalue = [0, 1]\nclass = 1", fillcolor="#399de5"] ;
410 -> 412 ;
413 [label="gini = 0.0\nsamples = 73\nvalue = [73, 0]\nclass = 0", fillcolor="#e58139"] ;
409 -> 413 ;
414 [label="HbA1c_level <= 6.15\ngini = 0.18\nsamples = 10\nvalue = [9, 1]\nclass = 0", fillcolor="#e88f4f"] ;
408 -> 414 ;
415 [label="gini = 0.0\nsamples = 7\nvalue = [7, 0]\nclass = 0", fillcolor="#e58139"] ;
414 -> 415 ;
416 [label="smoking_history <= 1.0\ngini = 0.444\nsamples = 3\nvalue = [2, 1]\nclass = 0", fillcolor="#f2c09c"] ;
414 -> 416 ;
417 [label="gini = 0.0\nsamples = 1\nvalue = [0, 1]\nclass = 1", fillcolor="#399de5"] ;
416 -> 417 ;
418 [label="gini = 0.0\nsamples = 2\nvalue = [2, 0]\nclass = 0", fillcolor="#e58139"] ;
416 -> 418 ;
419 [label="gini = 0.0\nsamples = 257\nvalue = [257, 0]\nclass = 0", fillcolor="#e58139"] ;
407 -> 419 ;
420 [label="bmi <= 38.52\ngini = 0.085\nsamples = 582\nvalue = [556, 26]\nclass = 0", fillcolor="#e68742"] ;
396 -> 420 ;
421 [label="bmi <= 32.21\ngini = 0.076\nsamples = 559\nvalue = [537, 22]\nclass = 0", fillcolor="#e68641"] ;
420 -> 421 ;
422 [label="smoking_history <= 1.5\ngini = 0.026\nsamples = 154\nvalue = [152, 2]\nclass = 0", fillcolor="#e5833c"] ;
421 -> 422 ;
423 [label="gini = 0.0\nsamples = 111\nvalue = [111, 0]\nclass = 0", fillcolor="#e58139"] ;
422 -> 423 ;
424 [label="bmi <= 31.24\ngini = 0.089\nsamples = 43\nvalue = [41, 2]\nclass = 0", fillcolor="#e68743"] ;
422 -> 424 ;
425 [label="bmi <= 31.19\ngini = 0.26\nsamples = 13\nvalue = [11, 2]\nclass = 0", fillcolor="#ea985d"] ;
424 -> 425 ;
426 [label="gini = 0.0\nsamples = 10\nvalue = [10, 0]\nclass = 0", fillcolor="#e58139"] ;
425 -> 426 ;
427 [label="HbA1c_level <= 6.05\ngini = 0.444\nsamples = 3\nvalue = [1, 2]\nclass = 1", fillcolor="#9ccef2"] ;
425 -> 427 ;
428 [label="gini = 0.0\nsamples = 2\nvalue = [0, 2]\nclass = 1", fillcolor="#399de5"] ;
427 -> 428 ;
429 [label="gini = 0.0\nsamples = 1\nvalue = [1, 0]\nclass = 0", fillcolor="#e58139"] ;
427 -> 429 ;
430 [label="gini = 0.0\nsamples = 30\nvalue = [30, 0]\nclass = 0", fillcolor="#e58139"] ;
424 -> 430 ;
431 [label="bmi <= 32.245\ngini = 0.094\nsamples = 405\nvalue = [385, 20]\nclass = 0", fillcolor="#e68843"] ;
421 -> 431 ;
432 [label="gender <= 0.5\ngini = 0.48\nsamples = 5\nvalue = [3, 2]\nclass = 0", fillcolor="#f6d5bd"] ;
431 -> 432 ;
433 [label="gini = 0.0\nsamples = 3\nvalue = [3, 0]\nclass = 0", fillcolor="#e58139"] ;
432 -> 433 ;
434 [label="gini = 0.0\nsamples = 2\nvalue = [0, 2]\nclass = 1", fillcolor="#399de5"] ;
432 -> 434 ;
435 [label="blood_glucose_level <= 128.0\ngini = 0.086\nsamples = 400\nvalue = [382, 18]\nclass = 0", fillcolor="#e68742"] ;
431 -> 435 ;
436 [label="bmi <= 32.92\ngini = 0.219\nsamples = 40\nvalue = [35, 5]\nclass = 0", fillcolor="#e99355"] ;
435 -> 436 ;
437 [label="bmi <= 32.57\ngini = 0.42\nsamples = 10\nvalue = [7, 3]\nclass = 0", fillcolor="#f0b78e"] ;
436 -> 437 ;
438 [label="gini = 0.0\nsamples = 4\nvalue = [4, 0]\nclass = 0", fillcolor="#e58139"] ;
437 -> 438 ;
439 [label="bmi <= 32.705\ngini = 0.5\nsamples = 6\nvalue = [3, 3]\nclass = 0", fillcolor="#ffffff"] ;
437 -> 439 ;
440 [label="gini = 0.0\nsamples = 1\nvalue = [0, 1]\nclass = 1", fillcolor="#399de5"] ;
439 -> 440 ;
441 [label="bmi <= 32.745\ngini = 0.48\nsamples = 5\nvalue = [3, 2]\nclass = 0", fillcolor="#f6d5bd"] ;
439 -> 441 ;
442 [label="gini = 0.0\nsamples = 2\nvalue = [2, 0]\nclass = 0", fillcolor="#e58139"] ;
441 -> 442 ;
443 [label="smoking_history <= 2.0\ngini = 0.444\nsamples = 3\nvalue = [1, 2]\nclass = 1", fillcolor="#9ccef2"] ;
441 -> 443 ;
444 [label="gini = 0.0\nsamples = 2\nvalue = [0, 2]\nclass = 1", fillcolor="#399de5"] ;
443 -> 444 ;
445 [label="gini = 0.0\nsamples = 1\nvalue = [1, 0]\nclass = 0", fillcolor="#e58139"] ;
443 -> 445 ;
446 [label="HbA1c_level <= 5.75\ngini = 0.124\nsamples = 30\nvalue = [28, 2]\nclass = 0", fillcolor="#e78a47"] ;
436 -> 446 ;
447 [label="bmi <= 35.87\ngini = 0.375\nsamples = 4\nvalue = [3, 1]\nclass = 0", fillcolor="#eeab7b"] ;
446 -> 447 ;
448 [label="gini = 0.0\nsamples = 3\nvalue = [3, 0]\nclass = 0", fillcolor="#e58139"] ;
447 -> 448 ;
449 [label="gini = 0.0\nsamples = 1\nvalue = [0, 1]\nclass = 1", fillcolor="#399de5"] ;
447 -> 449 ;
450 [label="bmi <= 35.785\ngini = 0.074\nsamples = 26\nvalue = [25, 1]\nclass = 0", fillcolor="#e68641"] ;
446 -> 450 ;
451 [label="bmi <= 35.265\ngini = 0.153\nsamples = 12\nvalue = [11, 1]\nclass = 0", fillcolor="#e78c4b"] ;
450 -> 451 ;
452 [label="gini = 0.0\nsamples = 11\nvalue = [11, 0]\nclass = 0", fillcolor="#e58139"] ;
451 -> 452 ;
453 [label="gini = 0.0\nsamples = 1\nvalue = [0, 1]\nclass = 1", fillcolor="#399de5"] ;
451 -> 453 ;
454 [label="gini = 0.0\nsamples = 14\nvalue = [14, 0]\nclass = 0", fillcolor="#e58139"] ;
450 -> 454 ;
455 [label="smoking_history <= 1.5\ngini = 0.07\nsamples = 360\nvalue = [347, 13]\nclass = 0", fillcolor="#e68640"] ;
435 -> 455 ;
456 [label="bmi <= 36.735\ngini = 0.098\nsamples = 252\nvalue = [239, 13]\nclass = 0", fillcolor="#e68844"] ;
455 -> 456 ;
457 [label="gender <= 0.5\ngini = 0.076\nsamples = 203\nvalue = [195, 8]\nclass = 0", fillcolor="#e68641"] ;
456 -> 457 ;
458 [label="smoking_history <= 0.5\ngini = 0.108\nsamples = 140\nvalue = [132, 8]\nclass = 0", fillcolor="#e78945"] ;
457 -> 458 ;
459 [label="age <= 31.5\ngini = 0.082\nsamples = 117\nvalue = [112, 5]\nclass = 0", fillcolor="#e68742"] ;
458 -> 459 ;
460 [label="gini = 0.0\nsamples = 50\nvalue = [50, 0]\nclass = 0", fillcolor="#e58139"] ;
459 -> 460 ;
461 [label="HbA1c_level <= 5.75\ngini = 0.138\nsamples = 67\nvalue = [62, 5]\nclass = 0", fillcolor="#e78b49"] ;
459 -> 461 ;
462 [label="bmi <= 34.385\ngini = 0.408\nsamples = 7\nvalue = [5, 2]\nclass = 0", fillcolor="#efb388"] ;
461 -> 462 ;
463 [label="age <= 33.5\ngini = 0.5\nsamples = 4\nvalue = [2, 2]\nclass = 0", fillcolor="#ffffff"] ;
462 -> 463 ;
464 [label="gini = 0.0\nsamples = 2\nvalue = [2, 0]\nclass = 0", fillcolor="#e58139"] ;
463 -> 464 ;
465 [label="gini = 0.0\nsamples = 2\nvalue = [0, 2]\nclass = 1", fillcolor="#399de5"] ;
463 -> 465 ;
466 [label="gini = 0.0\nsamples = 3\nvalue = [3, 0]\nclass = 0", fillcolor="#e58139"] ;
462 -> 466 ;
467 [label="age <= 32.5\ngini = 0.095\nsamples = 60\nvalue = [57, 3]\nclass = 0", fillcolor="#e68843"] ;
461 -> 467 ;
468 [label="bmi <= 35.035\ngini = 0.278\nsamples = 6\nvalue = [5, 1]\nclass = 0", fillcolor="#ea9a61"] ;
467 -> 468 ;
469 [label="gini = 0.0\nsamples = 4\nvalue = [4, 0]\nclass = 0", fillcolor="#e58139"] ;
468 -> 469 ;
470 [label="bmi <= 35.92\ngini = 0.5\nsamples = 2\nvalue = [1, 1]\nclass = 0", fillcolor="#ffffff"] ;
468 -> 470 ;
471 [label="gini = 0.0\nsamples = 1\nvalue = [0, 1]\nclass = 1", fillcolor="#399de5"] ;
470 -> 471 ;
472 [label="gini = 0.0\nsamples = 1\nvalue = [1, 0]\nclass = 0", fillcolor="#e58139"] ;
470 -> 472 ;
473 [label="bmi <= 33.62\ngini = 0.071\nsamples = 54\nvalue = [52, 2]\nclass = 0", fillcolor="#e68641"] ;
467 -> 473 ;
474 [label="bmi <= 33.525\ngini = 0.165\nsamples = 22\nvalue = [20, 2]\nclass = 0", fillcolor="#e88e4d"] ;
473 -> 474 ;
475 [label="age <= 37.0\ngini = 0.091\nsamples = 21\nvalue = [20, 1]\nclass = 0", fillcolor="#e68743"] ;
474 -> 475 ;
476 [label="gini = 0.0\nsamples = 15\nvalue = [15, 0]\nclass = 0", fillcolor="#e58139"] ;
475 -> 476 ;
477 [label="bmi <= 32.85\ngini = 0.278\nsamples = 6\nvalue = [5, 1]\nclass = 0", fillcolor="#ea9a61"] ;
475 -> 477 ;
478 [label="blood_glucose_level <= 159.5\ngini = 0.5\nsamples = 2\nvalue = [1, 1]\nclass = 0", fillcolor="#ffffff"] ;
477 -> 478 ;
479 [label="gini = 0.0\nsamples = 1\nvalue = [1, 0]\nclass = 0", fillcolor="#e58139"] ;
478 -> 479 ;
480 [label="gini = 0.0\nsamples = 1\nvalue = [0, 1]\nclass = 1", fillcolor="#399de5"] ;
478 -> 480 ;
481 [label="gini = 0.0\nsamples = 4\nvalue = [4, 0]\nclass = 0", fillcolor="#e58139"] ;
477 -> 481 ;
482 [label="gini = 0.0\nsamples = 1\nvalue = [0, 1]\nclass = 1", fillcolor="#399de5"] ;
474 -> 482 ;
483 [label="gini = 0.0\nsamples = 32\nvalue = [32, 0]\nclass = 0", fillcolor="#e58139"] ;
473 -> 483 ;
484 [label="age <= 29.5\ngini = 0.227\nsamples = 23\nvalue = [20, 3]\nclass = 0", fillcolor="#e99457"] ;
458 -> 484 ;
485 [label="bmi <= 34.455\ngini = 0.5\nsamples = 2\nvalue = [1, 1]\nclass = 0", fillcolor="#ffffff"] ;
484 -> 485 ;
486 [label="gini = 0.0\nsamples = 1\nvalue = [0, 1]\nclass = 1", fillcolor="#399de5"] ;
485 -> 486 ;
487 [label="gini = 0.0\nsamples = 1\nvalue = [1, 0]\nclass = 0", fillcolor="#e58139"] ;
485 -> 487 ;
488 [label="bmi <= 35.72\ngini = 0.172\nsamples = 21\nvalue = [19, 2]\nclass = 0", fillcolor="#e88e4e"] ;
484 -> 488 ;
489 [label="age <= 36.0\ngini = 0.111\nsamples = 17\nvalue = [16, 1]\nclass = 0", fillcolor="#e78945"] ;
488 -> 489 ;
490 [label="gini = 0.0\nsamples = 13\nvalue = [13, 0]\nclass = 0", fillcolor="#e58139"] ;
489 -> 490 ;
491 [label="blood_glucose_level <= 142.5\ngini = 0.375\nsamples = 4\nvalue = [3, 1]\nclass = 0", fillcolor="#eeab7b"] ;
489 -> 491 ;
492 [label="gini = 0.0\nsamples = 1\nvalue = [0, 1]\nclass = 1", fillcolor="#399de5"] ;
491 -> 492 ;
493 [label="gini = 0.0\nsamples = 3\nvalue = [3, 0]\nclass = 0", fillcolor="#e58139"] ;
491 -> 493 ;
494 [label="age <= 33.5\ngini = 0.375\nsamples = 4\nvalue = [3, 1]\nclass = 0", fillcolor="#eeab7b"] ;
488 -> 494 ;
495 [label="gini = 0.0\nsamples = 1\nvalue = [0, 1]\nclass = 1", fillcolor="#399de5"] ;
494 -> 495 ;
496 [label="gini = 0.0\nsamples = 3\nvalue = [3, 0]\nclass = 0", fillcolor="#e58139"] ;
494 -> 496 ;
497 [label="gini = 0.0\nsamples = 63\nvalue = [63, 0]\nclass = 0", fillcolor="#e58139"] ;
457 -> 497 ;
498 [label="bmi <= 36.785\ngini = 0.183\nsamples = 49\nvalue = [44, 5]\nclass = 0", fillcolor="#e88f50"] ;
456 -> 498 ;
499 [label="gender <= 0.5\ngini = 0.5\nsamples = 4\nvalue = [2, 2]\nclass = 0", fillcolor="#ffffff"] ;
498 -> 499 ;
500 [label="gini = 0.0\nsamples = 2\nvalue = [2, 0]\nclass = 0", fillcolor="#e58139"] ;
499 -> 500 ;
501 [label="gini = 0.0\nsamples = 2\nvalue = [0, 2]\nclass = 1", fillcolor="#399de5"] ;
499 -> 501 ;
502 [label="age <= 28.5\ngini = 0.124\nsamples = 45\nvalue = [42, 3]\nclass = 0", fillcolor="#e78a47"] ;
498 -> 502 ;
503 [label="HbA1c_level <= 6.05\ngini = 0.5\nsamples = 2\nvalue = [1, 1]\nclass = 0", fillcolor="#ffffff"] ;
502 -> 503 ;
504 [label="gini = 0.0\nsamples = 1\nvalue = [0, 1]\nclass = 1", fillcolor="#399de5"] ;
503 -> 504 ;
505 [label="gini = 0.0\nsamples = 1\nvalue = [1, 0]\nclass = 0", fillcolor="#e58139"] ;
503 -> 505 ;
506 [label="blood_glucose_level <= 158.5\ngini = 0.089\nsamples = 43\nvalue = [41, 2]\nclass = 0", fillcolor="#e68743"] ;
502 -> 506 ;
507 [label="gini = 0.0\nsamples = 26\nvalue = [26, 0]\nclass = 0", fillcolor="#e58139"] ;
506 -> 507 ;
508 [label="blood_glucose_level <= 159.5\ngini = 0.208\nsamples = 17\nvalue = [15, 2]\nclass = 0", fillcolor="#e89253"] ;
506 -> 508 ;
509 [label="HbA1c_level <= 6.55\ngini = 0.408\nsamples = 7\nvalue = [5, 2]\nclass = 0", fillcolor="#efb388"] ;
508 -> 509 ;
510 [label="bmi <= 38.04\ngini = 0.278\nsamples = 6\nvalue = [5, 1]\nclass = 0", fillcolor="#ea9a61"] ;
509 -> 510 ;
511 [label="gini = 0.0\nsamples = 3\nvalue = [3, 0]\nclass = 0", fillcolor="#e58139"] ;
510 -> 511 ;
512 [label="bmi <= 38.205\ngini = 0.444\nsamples = 3\nvalue = [2, 1]\nclass = 0", fillcolor="#f2c09c"] ;
510 -> 512 ;
513 [label="gini = 0.0\nsamples = 1\nvalue = [0, 1]\nclass = 1", fillcolor="#399de5"] ;
512 -> 513 ;
514 [label="gini = 0.0\nsamples = 2\nvalue = [2, 0]\nclass = 0", fillcolor="#e58139"] ;
512 -> 514 ;
515 [label="gini = 0.0\nsamples = 1\nvalue = [0, 1]\nclass = 1", fillcolor="#399de5"] ;
509 -> 515 ;
516 [label="gini = 0.0\nsamples = 10\nvalue = [10, 0]\nclass = 0", fillcolor="#e58139"] ;
508 -> 516 ;
517 [label="gini = 0.0\nsamples = 108\nvalue = [108, 0]\nclass = 0", fillcolor="#e58139"] ;
455 -> 517 ;
518 [label="bmi <= 38.6\ngini = 0.287\nsamples = 23\nvalue = [19, 4]\nclass = 0", fillcolor="#ea9c63"] ;
420 -> 518 ;
519 [label="blood_glucose_level <= 149.5\ngini = 0.5\nsamples = 4\nvalue = [2, 2]\nclass = 0", fillcolor="#ffffff"] ;
518 -> 519 ;
520 [label="gini = 0.0\nsamples = 2\nvalue = [2, 0]\nclass = 0", fillcolor="#e58139"] ;
519 -> 520 ;
521 [label="gini = 0.0\nsamples = 2\nvalue = [0, 2]\nclass = 1", fillcolor="#399de5"] ;
519 -> 521 ;
522 [label="HbA1c_level <= 6.55\ngini = 0.188\nsamples = 19\nvalue = [17, 2]\nclass = 0", fillcolor="#e89050"] ;
518 -> 522 ;
523 [label="gini = 0.0\nsamples = 15\nvalue = [15, 0]\nclass = 0", fillcolor="#e58139"] ;
522 -> 523 ;
524 [label="age <= 30.5\ngini = 0.5\nsamples = 4\nvalue = [2, 2]\nclass = 0", fillcolor="#ffffff"] ;
522 -> 524 ;
525 [label="gini = 0.0\nsamples = 1\nvalue = [1, 0]\nclass = 0", fillcolor="#e58139"] ;
524 -> 525 ;
526 [label="blood_glucose_level <= 152.0\ngini = 0.444\nsamples = 3\nvalue = [1, 2]\nclass = 1", fillcolor="#9ccef2"] ;
524 -> 526 ;
527 [label="gini = 0.0\nsamples = 2\nvalue = [0, 2]\nclass = 1", fillcolor="#399de5"] ;
526 -> 527 ;
528 [label="gini = 0.0\nsamples = 1\nvalue = [1, 0]\nclass = 0", fillcolor="#e58139"] ;
526 -> 528 ;
529 [label="HbA1c_level <= 6.55\ngini = 0.144\nsamples = 128\nvalue = [118, 10]\nclass = 0", fillcolor="#e78c4a"] ;
7 -> 529 ;
530 [label="bmi <= 36.905\ngini = 0.088\nsamples = 108\nvalue = [103, 5]\nclass = 0", fillcolor="#e68743"] ;
529 -> 530 ;
531 [label="bmi <= 27.385\ngini = 0.041\nsamples = 95\nvalue = [93, 2]\nclass = 0", fillcolor="#e6843d"] ;
530 -> 531 ;
532 [label="age <= 37.5\ngini = 0.114\nsamples = 33\nvalue = [31, 2]\nclass = 0", fillcolor="#e78946"] ;
531 -> 532 ;
533 [label="smoking_history <= 0.5\ngini = 0.062\nsamples = 31\nvalue = [30, 1]\nclass = 0", fillcolor="#e68540"] ;
532 -> 533 ;
534 [label="bmi <= 26.325\ngini = 0.153\nsamples = 12\nvalue = [11, 1]\nclass = 0", fillcolor="#e78c4b"] ;
533 -> 534 ;
535 [label="gini = 0.0\nsamples = 8\nvalue = [8, 0]\nclass = 0", fillcolor="#e58139"] ;
534 -> 535 ;
536 [label="blood_glucose_level <= 142.5\ngini = 0.375\nsamples = 4\nvalue = [3, 1]\nclass = 0", fillcolor="#eeab7b"] ;
534 -> 536 ;
537 [label="gini = 0.0\nsamples = 3\nvalue = [3, 0]\nclass = 0", fillcolor="#e58139"] ;
536 -> 537 ;
538 [label="gini = 0.0\nsamples = 1\nvalue = [0, 1]\nclass = 1", fillcolor="#399de5"] ;
536 -> 538 ;
539 [label="gini = 0.0\nsamples = 19\nvalue = [19, 0]\nclass = 0", fillcolor="#e58139"] ;
533 -> 539 ;
540 [label="blood_glucose_level <= 152.5\ngini = 0.5\nsamples = 2\nvalue = [1, 1]\nclass = 0", fillcolor="#ffffff"] ;
532 -> 540 ;
541 [label="gini = 0.0\nsamples = 1\nvalue = [1, 0]\nclass = 0", fillcolor="#e58139"] ;
540 -> 541 ;
542 [label="gini = 0.0\nsamples = 1\nvalue = [0, 1]\nclass = 1", fillcolor="#399de5"] ;
540 -> 542 ;
543 [label="gini = 0.0\nsamples = 62\nvalue = [62, 0]\nclass = 0", fillcolor="#e58139"] ;
531 -> 543 ;
544 [label="bmi <= 36.97\ngini = 0.355\nsamples = 13\nvalue = [10, 3]\nclass = 0", fillcolor="#eda774"] ;
530 -> 544 ;
545 [label="gini = 0.0\nsamples = 2\nvalue = [0, 2]\nclass = 1", fillcolor="#399de5"] ;
544 -> 545 ;
546 [label="age <= 27.5\ngini = 0.165\nsamples = 11\nvalue = [10, 1]\nclass = 0", fillcolor="#e88e4d"] ;
544 -> 546 ;
547 [label="heart_disease <= 0.5\ngini = 0.5\nsamples = 2\nvalue = [1, 1]\nclass = 0", fillcolor="#ffffff"] ;
546 -> 547 ;
548 [label="gini = 0.0\nsamples = 1\nvalue = [0, 1]\nclass = 1", fillcolor="#399de5"] ;
547 -> 548 ;
549 [label="gini = 0.0\nsamples = 1\nvalue = [1, 0]\nclass = 0", fillcolor="#e58139"] ;
547 -> 549 ;
550 [label="gini = 0.0\nsamples = 9\nvalue = [9, 0]\nclass = 0", fillcolor="#e58139"] ;
546 -> 550 ;
551 [label="bmi <= 29.235\ngini = 0.375\nsamples = 20\nvalue = [15, 5]\nclass = 0", fillcolor="#eeab7b"] ;
529 -> 551 ;
552 [label="bmi <= 20.735\ngini = 0.165\nsamples = 11\nvalue = [10, 1]\nclass = 0", fillcolor="#e88e4d"] ;
551 -> 552 ;
553 [label="gini = 0.0\nsamples = 1\nvalue = [0, 1]\nclass = 1", fillcolor="#399de5"] ;
552 -> 553 ;
554 [label="gini = 0.0\nsamples = 10\nvalue = [10, 0]\nclass = 0", fillcolor="#e58139"] ;
552 -> 554 ;
555 [label="blood_glucose_level <= 156.5\ngini = 0.494\nsamples = 9\nvalue = [5, 4]\nclass = 0", fillcolor="#fae6d7"] ;
551 -> 555 ;
556 [label="age <= 29.5\ngini = 0.444\nsamples = 6\nvalue = [2, 4]\nclass = 1", fillcolor="#9ccef2"] ;
555 -> 556 ;
557 [label="gini = 0.0\nsamples = 2\nvalue = [2, 0]\nclass = 0", fillcolor="#e58139"] ;
556 -> 557 ;
558 [label="gini = 0.0\nsamples = 4\nvalue = [0, 4]\nclass = 1", fillcolor="#399de5"] ;
556 -> 558 ;
559 [label="gini = 0.0\nsamples = 3\nvalue = [3, 0]\nclass = 0", fillcolor="#e58139"] ;
555 -> 559 ;
560 [label="blood_glucose_level <= 113.0\ngini = 0.084\nsamples = 6756\nvalue = [6458, 298]\nclass = 0", fillcolor="#e68742"] ;
6 -> 560 ;
561 [label="gini = 0.0\nsamples = 1995\nvalue = [1995, 0]\nclass = 0", fillcolor="#e58139"] ;
560 -> 561 ;
562 [label="bmi <= 29.155\ngini = 0.117\nsamples = 4761\nvalue = [4463, 298]\nclass = 0", fillcolor="#e78946"] ;
560 -> 562 ;
563 [label="heart_disease <= 0.5\ngini = 0.085\nsamples = 3179\nvalue = [3037, 142]\nclass = 0", fillcolor="#e68742"] ;
562 -> 563 ;
564 [label="hypertension <= 0.5\ngini = 0.08\nsamples = 3136\nvalue = [3005, 131]\nclass = 0", fillcolor="#e68642"] ;
563 -> 564 ;
565 [label="blood_glucose_level <= 156.5\ngini = 0.073\nsamples = 2971\nvalue = [2859, 112]\nclass = 0", fillcolor="#e68641"] ;
564 -> 565 ;
566 [label="age <= 48.5\ngini = 0.096\nsamples = 1694\nvalue = [1608, 86]\nclass = 0", fillcolor="#e68844"] ;
565 -> 566 ;
567 [label="bmi <= 26.39\ngini = 0.076\nsamples = 1063\nvalue = [1021, 42]\nclass = 0", fillcolor="#e68641"] ;
566 -> 567 ;
568 [label="bmi <= 20.545\ngini = 0.041\nsamples = 473\nvalue = [463, 10]\nclass = 0", fillcolor="#e6843d"] ;
567 -> 568 ;
569 [label="bmi <= 20.5\ngini = 0.117\nsamples = 64\nvalue = [60, 4]\nclass = 0", fillcolor="#e78946"] ;
568 -> 569 ;
570 [label="bmi <= 20.345\ngini = 0.062\nsamples = 62\nvalue = [60, 2]\nclass = 0", fillcolor="#e68540"] ;
569 -> 570 ;
571 [label="age <= 47.5\ngini = 0.033\nsamples = 59\nvalue = [58, 1]\nclass = 0", fillcolor="#e5833c"] ;
570 -> 571 ;
572 [label="gini = 0.0\nsamples = 52\nvalue = [52, 0]\nclass = 0", fillcolor="#e58139"] ;
571 -> 572 ;
573 [label="smoking_history <= 1.5\ngini = 0.245\nsamples = 7\nvalue = [6, 1]\nclass = 0", fillcolor="#e9965a"] ;
571 -> 573 ;
574 [label="gini = 0.0\nsamples = 6\nvalue = [6, 0]\nclass = 0", fillcolor="#e58139"] ;
573 -> 574 ;
575 [label="gini = 0.0\nsamples = 1\nvalue = [0, 1]\nclass = 1", fillcolor="#399de5"] ;
573 -> 575 ;
576 [label="HbA1c_level <= 6.05\ngini = 0.444\nsamples = 3\nvalue = [2, 1]\nclass = 0", fillcolor="#f2c09c"] ;
570 -> 576 ;
577 [label="gini = 0.0\nsamples = 1\nvalue = [0, 1]\nclass = 1", fillcolor="#399de5"] ;
576 -> 577 ;
578 [label="gini = 0.0\nsamples = 2\nvalue = [2, 0]\nclass = 0", fillcolor="#e58139"] ;
576 -> 578 ;
579 [label="gini = 0.0\nsamples = 2\nvalue = [0, 2]\nclass = 1", fillcolor="#399de5"] ;
569 -> 579 ;
580 [label="HbA1c_level <= 5.9\ngini = 0.029\nsamples = 409\nvalue = [403, 6]\nclass = 0", fillcolor="#e5833c"] ;
568 -> 580 ;
581 [label="blood_glucose_level <= 150.0\ngini = 0.071\nsamples = 108\nvalue = [104, 4]\nclass = 0", fillcolor="#e68641"] ;
580 -> 581 ;
582 [label="bmi <= 25.705\ngini = 0.023\nsamples = 87\nvalue = [86, 1]\nclass = 0", fillcolor="#e5823b"] ;
581 -> 582 ;
583 [label="gini = 0.0\nsamples = 76\nvalue = [76, 0]\nclass = 0", fillcolor="#e58139"] ;
582 -> 583 ;
584 [label="bmi <= 25.75\ngini = 0.165\nsamples = 11\nvalue = [10, 1]\nclass = 0", fillcolor="#e88e4d"] ;
582 -> 584 ;
585 [label="gini = 0.0\nsamples = 1\nvalue = [0, 1]\nclass = 1", fillcolor="#399de5"] ;
584 -> 585 ;
586 [label="gini = 0.0\nsamples = 10\nvalue = [10, 0]\nclass = 0", fillcolor="#e58139"] ;
584 -> 586 ;
587 [label="age <= 45.5\ngini = 0.245\nsamples = 21\nvalue = [18, 3]\nclass = 0", fillcolor="#e9965a"] ;
581 -> 587 ;
588 [label="age <= 42.5\ngini = 0.42\nsamples = 10\nvalue = [7, 3]\nclass = 0", fillcolor="#f0b78e"] ;
587 -> 588 ;
589 [label="gini = 0.0\nsamples = 4\nvalue = [4, 0]\nclass = 0", fillcolor="#e58139"] ;
588 -> 589 ;
590 [label="age <= 43.5\ngini = 0.5\nsamples = 6\nvalue = [3, 3]\nclass = 0", fillcolor="#ffffff"] ;
588 -> 590 ;
591 [label="gini = 0.0\nsamples = 1\nvalue = [0, 1]\nclass = 1", fillcolor="#399de5"] ;
590 -> 591 ;
592 [label="bmi <= 24.005\ngini = 0.48\nsamples = 5\nvalue = [3, 2]\nclass = 0", fillcolor="#f6d5bd"] ;
590 -> 592 ;
593 [label="bmi <= 22.825\ngini = 0.444\nsamples = 3\nvalue = [1, 2]\nclass = 1", fillcolor="#9ccef2"] ;
592 -> 593 ;
594 [label="gini = 0.0\nsamples = 1\nvalue = [1, 0]\nclass = 0", fillcolor="#e58139"] ;
593 -> 594 ;
595 [label="gini = 0.0\nsamples = 2\nvalue = [0, 2]\nclass = 1", fillcolor="#399de5"] ;
593 -> 595 ;
596 [label="gini = 0.0\nsamples = 2\nvalue = [2, 0]\nclass = 0", fillcolor="#e58139"] ;
592 -> 596 ;
597 [label="gini = 0.0\nsamples = 11\nvalue = [11, 0]\nclass = 0", fillcolor="#e58139"] ;
587 -> 597 ;
598 [label="gender <= 0.5\ngini = 0.013\nsamples = 301\nvalue = [299, 2]\nclass = 0", fillcolor="#e5823a"] ;
580 -> 598 ;
599 [label="gini = 0.0\nsamples = 206\nvalue = [206, 0]\nclass = 0", fillcolor="#e58139"] ;
598 -> 599 ;
600 [label="HbA1c_level <= 6.35\ngini = 0.041\nsamples = 95\nvalue = [93, 2]\nclass = 0", fillcolor="#e6843d"] ;
598 -> 600 ;
601 [label="gini = 0.0\nsamples = 54\nvalue = [54, 0]\nclass = 0", fillcolor="#e58139"] ;
600 -> 601 ;
602 [label="bmi <= 23.695\ngini = 0.093\nsamples = 41\nvalue = [39, 2]\nclass = 0", fillcolor="#e68743"] ;
600 -> 602 ;
603 [label="gini = 0.0\nsamples = 19\nvalue = [19, 0]\nclass = 0", fillcolor="#e58139"] ;
602 -> 603 ;
604 [label="bmi <= 23.98\ngini = 0.165\nsamples = 22\nvalue = [20, 2]\nclass = 0", fillcolor="#e88e4d"] ;
602 -> 604 ;
605 [label="gini = 0.0\nsamples = 1\nvalue = [0, 1]\nclass = 1", fillcolor="#399de5"] ;
604 -> 605 ;
606 [label="bmi <= 24.48\ngini = 0.091\nsamples = 21\nvalue = [20, 1]\nclass = 0", fillcolor="#e68743"] ;
604 -> 606 ;
607 [label="bmi <= 24.41\ngini = 0.32\nsamples = 5\nvalue = [4, 1]\nclass = 0", fillcolor="#eca06a"] ;
606 -> 607 ;
608 [label="gini = 0.0\nsamples = 4\nvalue = [4, 0]\nclass = 0", fillcolor="#e58139"] ;
607 -> 608 ;
609 [label="gini = 0.0\nsamples = 1\nvalue = [0, 1]\nclass = 1", fillcolor="#399de5"] ;
607 -> 609 ;
610 [label="gini = 0.0\nsamples = 16\nvalue = [16, 0]\nclass = 0", fillcolor="#e58139"] ;
606 -> 610 ;
611 [label="bmi <= 26.405\ngini = 0.103\nsamples = 590\nvalue = [558, 32]\nclass = 0", fillcolor="#e68844"] ;
567 -> 611 ;
612 [label="gender <= 0.5\ngini = 0.5\nsamples = 2\nvalue = [1, 1]\nclass = 0", fillcolor="#ffffff"] ;
611 -> 612 ;
613 [label="gini = 0.0\nsamples = 1\nvalue = [1, 0]\nclass = 0", fillcolor="#e58139"] ;
612 -> 613 ;
614 [label="gini = 0.0\nsamples = 1\nvalue = [0, 1]\nclass = 1", fillcolor="#399de5"] ;
612 -> 614 ;
615 [label="bmi <= 28.99\ngini = 0.1\nsamples = 588\nvalue = [557, 31]\nclass = 0", fillcolor="#e68844"] ;
611 -> 615 ;
616 [label="bmi <= 28.605\ngini = 0.094\nsamples = 568\nvalue = [540, 28]\nclass = 0", fillcolor="#e68843"] ;
615 -> 616 ;
617 [label="bmi <= 28.59\ngini = 0.099\nsamples = 536\nvalue = [508, 28]\nclass = 0", fillcolor="#e68844"] ;
616 -> 617 ;
618 [label="bmi <= 27.76\ngini = 0.096\nsamples = 534\nvalue = [507, 27]\nclass = 0", fillcolor="#e68844"] ;
617 -> 618 ;
619 [label="bmi <= 27.325\ngini = 0.086\nsamples = 464\nvalue = [443, 21]\nclass = 0", fillcolor="#e68742"] ;
618 -> 619 ;
620 [label="blood_glucose_level <= 135.0\ngini = 0.095\nsamples = 418\nvalue = [397, 21]\nclass = 0", fillcolor="#e68843"] ;
619 -> 620 ;
621 [label="age <= 42.5\ngini = 0.128\nsamples = 160\nvalue = [149, 11]\nclass = 0", fillcolor="#e78a48"] ;
620 -> 621 ;
622 [label="smoking_history <= 2.5\ngini = 0.063\nsamples = 61\nvalue = [59, 2]\nclass = 0", fillcolor="#e68540"] ;
621 -> 622 ;
623 [label="gini = 0.0\nsamples = 50\nvalue = [50, 0]\nclass = 0", fillcolor="#e58139"] ;
622 -> 623 ;
624 [label="gender <= 0.5\ngini = 0.298\nsamples = 11\nvalue = [9, 2]\nclass = 0", fillcolor="#eb9d65"] ;
622 -> 624 ;
625 [label="HbA1c_level <= 6.0\ngini = 0.48\nsamples = 5\nvalue = [3, 2]\nclass = 0", fillcolor="#f6d5bd"] ;
624 -> 625 ;
626 [label="gini = 0.0\nsamples = 2\nvalue = [2, 0]\nclass = 0", fillcolor="#e58139"] ;
625 -> 626 ;
627 [label="HbA1c_level <= 6.55\ngini = 0.444\nsamples = 3\nvalue = [1, 2]\nclass = 1", fillcolor="#9ccef2"] ;
625 -> 627 ;
628 [label="gini = 0.0\nsamples = 2\nvalue = [0, 2]\nclass = 1", fillcolor="#399de5"] ;
627 -> 628 ;
629 [label="gini = 0.0\nsamples = 1\nvalue = [1, 0]\nclass = 0", fillcolor="#e58139"] ;
627 -> 629 ;
630 [label="gini = 0.0\nsamples = 6\nvalue = [6, 0]\nclass = 0", fillcolor="#e58139"] ;
624 -> 630 ;
631 [label="HbA1c_level <= 5.75\ngini = 0.165\nsamples = 99\nvalue = [90, 9]\nclass = 0", fillcolor="#e88e4d"] ;
621 -> 631 ;
632 [label="age <= 46.5\ngini = 0.32\nsamples = 10\nvalue = [8, 2]\nclass = 0", fillcolor="#eca06a"] ;
631 -> 632 ;
633 [label="gini = 0.0\nsamples = 6\nvalue = [6, 0]\nclass = 0", fillcolor="#e58139"] ;
632 -> 633 ;
634 [label="age <= 47.5\ngini = 0.5\nsamples = 4\nvalue = [2, 2]\nclass = 0", fillcolor="#ffffff"] ;
632 -> 634 ;
635 [label="gini = 0.0\nsamples = 1\nvalue = [0, 1]\nclass = 1", fillcolor="#399de5"] ;
634 -> 635 ;
636 [label="bmi <= 27.04\ngini = 0.444\nsamples = 3\nvalue = [2, 1]\nclass = 0", fillcolor="#f2c09c"] ;
634 -> 636 ;
637 [label="gini = 0.0\nsamples = 1\nvalue = [0, 1]\nclass = 1", fillcolor="#399de5"] ;
636 -> 637 ;
638 [label="gini = 0.0\nsamples = 2\nvalue = [2, 0]\nclass = 0", fillcolor="#e58139"] ;
636 -> 638 ;
639 [label="age <= 44.5\ngini = 0.145\nsamples = 89\nvalue = [82, 7]\nclass = 0", fillcolor="#e78c4a"] ;
631 -> 639 ;
640 [label="bmi <= 27.285\ngini = 0.238\nsamples = 29\nvalue = [25, 4]\nclass = 0", fillcolor="#e99559"] ;
639 -> 640 ;
641 [label="gini = 0.0\nsamples = 5\nvalue = [5, 0]\nclass = 0", fillcolor="#e58139"] ;
640 -> 641 ;
642 [label="smoking_history <= 1.5\ngini = 0.278\nsamples = 24\nvalue = [20, 4]\nclass = 0", fillcolor="#ea9a61"] ;
640 -> 642 ;
643 [label="HbA1c_level <= 6.05\ngini = 0.355\nsamples = 13\nvalue = [10, 3]\nclass = 0", fillcolor="#eda774"] ;
642 -> 643 ;
644 [label="gini = 0.0\nsamples = 3\nvalue = [3, 0]\nclass = 0", fillcolor="#e58139"] ;
643 -> 644 ;
645 [label="HbA1c_level <= 6.15\ngini = 0.42\nsamples = 10\nvalue = [7, 3]\nclass = 0", fillcolor="#f0b78e"] ;
643 -> 645 ;
646 [label="gini = 0.0\nsamples = 1\nvalue = [0, 1]\nclass = 1", fillcolor="#399de5"] ;
645 -> 646 ;
647 [label="smoking_history <= 0.5\ngini = 0.346\nsamples = 9\nvalue = [7, 2]\nclass = 0", fillcolor="#eca572"] ;
645 -> 647 ;
648 [label="HbA1c_level <= 6.35\ngini = 0.444\nsamples = 6\nvalue = [4, 2]\nclass = 0", fillcolor="#f2c09c"] ;
647 -> 648 ;
649 [label="gini = 0.5\nsamples = 2\nvalue = [1, 1]\nclass = 0", fillcolor="#ffffff"] ;
648 -> 649 ;
650 [label="HbA1c_level <= 6.55\ngini = 0.375\nsamples = 4\nvalue = [3, 1]\nclass = 0", fillcolor="#eeab7b"] ;
648 -> 650 ;
651 [label="gini = 0.0\nsamples = 2\nvalue = [2, 0]\nclass = 0", fillcolor="#e58139"] ;
650 -> 651 ;
652 [label="blood_glucose_level <= 128.0\ngini = 0.5\nsamples = 2\nvalue = [1, 1]\nclass = 0", fillcolor="#ffffff"] ;
650 -> 652 ;
653 [label="gini = 0.0\nsamples = 1\nvalue = [1, 0]\nclass = 0", fillcolor="#e58139"] ;
652 -> 653 ;
654 [label="gini = 0.0\nsamples = 1\nvalue = [0, 1]\nclass = 1", fillcolor="#399de5"] ;
652 -> 654 ;
655 [label="gini = 0.0\nsamples = 3\nvalue = [3, 0]\nclass = 0", fillcolor="#e58139"] ;
647 -> 655 ;
656 [label="blood_glucose_level <= 128.0\ngini = 0.165\nsamples = 11\nvalue = [10, 1]\nclass = 0", fillcolor="#e88e4d"] ;
642 -> 656 ;
657 [label="HbA1c_level <= 5.9\ngini = 0.444\nsamples = 3\nvalue = [2, 1]\nclass = 0", fillcolor="#f2c09c"] ;
656 -> 657 ;
658 [label="gini = 0.0\nsamples = 1\nvalue = [1, 0]\nclass = 0", fillcolor="#e58139"] ;
657 -> 658 ;
659 [label="age <= 43.5\ngini = 0.5\nsamples = 2\nvalue = [1, 1]\nclass = 0", fillcolor="#ffffff"] ;
657 -> 659 ;
660 [label="gini = 0.0\nsamples = 1\nvalue = [1, 0]\nclass = 0", fillcolor="#e58139"] ;
659 -> 660 ;
661 [label="gini = 0.0\nsamples = 1\nvalue = [0, 1]\nclass = 1", fillcolor="#399de5"] ;
659 -> 661 ;
662 [label="gini = 0.0\nsamples = 8\nvalue = [8, 0]\nclass = 0", fillcolor="#e58139"] ;
656 -> 662 ;
663 [label="HbA1c_level <= 6.05\ngini = 0.095\nsamples = 60\nvalue = [57, 3]\nclass = 0", fillcolor="#e68843"] ;
639 -> 663 ;
664 [label="blood_glucose_level <= 128.0\ngini = 0.188\nsamples = 19\nvalue = [17, 2]\nclass = 0", fillcolor="#e89050"] ;
663 -> 664 ;
665 [label="gini = 0.0\nsamples = 8\nvalue = [8, 0]\nclass = 0", fillcolor="#e58139"] ;
664 -> 665 ;
666 [label="smoking_history <= 2.5\ngini = 0.298\nsamples = 11\nvalue = [9, 2]\nclass = 0", fillcolor="#eb9d65"] ;
664 -> 666 ;
667 [label="age <= 45.5\ngini = 0.444\nsamples = 6\nvalue = [4, 2]\nclass = 0", fillcolor="#f2c09c"] ;
666 -> 667 ;
668 [label="gini = 0.0\nsamples = 1\nvalue = [1, 0]\nclass = 0", fillcolor="#e58139"] ;
667 -> 668 ;
669 [label="smoking_history <= 1.0\ngini = 0.48\nsamples = 5\nvalue = [3, 2]\nclass = 0", fillcolor="#f6d5bd"] ;
667 -> 669 ;
670 [label="age <= 46.5\ngini = 0.375\nsamples = 4\nvalue = [3, 1]\nclass = 0", fillcolor="#eeab7b"] ;
669 -> 670 ;
671 [label="gini = 0.0\nsamples = 2\nvalue = [2, 0]\nclass = 0", fillcolor="#e58139"] ;
670 -> 671 ;
672 [label="gender <= 0.5\ngini = 0.5\nsamples = 2\nvalue = [1, 1]\nclass = 0", fillcolor="#ffffff"] ;
670 -> 672 ;
673 [label="gini = 0.0\nsamples = 1\nvalue = [0, 1]\nclass = 1", fillcolor="#399de5"] ;
672 -> 673 ;
674 [label="gini = 0.0\nsamples = 1\nvalue = [1, 0]\nclass = 0", fillcolor="#e58139"] ;
672 -> 674 ;
675 [label="gini = 0.0\nsamples = 1\nvalue = [0, 1]\nclass = 1", fillcolor="#399de5"] ;
669 -> 675 ;
676 [label="gini = 0.0\nsamples = 5\nvalue = [5, 0]\nclass = 0", fillcolor="#e58139"] ;
666 -> 676 ;
677 [label="HbA1c_level <= 6.55\ngini = 0.048\nsamples = 41\nvalue = [40, 1]\nclass = 0", fillcolor="#e6843e"] ;
663 -> 677 ;
678 [label="gini = 0.0\nsamples = 29\nvalue = [29, 0]\nclass = 0", fillcolor="#e58139"] ;
677 -> 678 ;
679 [label="age <= 46.5\ngini = 0.153\nsamples = 12\nvalue = [11, 1]\nclass = 0", fillcolor="#e78c4b"] ;
677 -> 679 ;
680 [label="age <= 45.5\ngini = 0.32\nsamples = 5\nvalue = [4, 1]\nclass = 0", fillcolor="#eca06a"] ;
679 -> 680 ;
681 [label="gini = 0.0\nsamples = 3\nvalue = [3, 0]\nclass = 0", fillcolor="#e58139"] ;
680 -> 681 ;
682 [label="gender <= 0.5\ngini = 0.5\nsamples = 2\nvalue = [1, 1]\nclass = 0", fillcolor="#ffffff"] ;
680 -> 682 ;
683 [label="gini = 0.0\nsamples = 1\nvalue = [1, 0]\nclass = 0", fillcolor="#e58139"] ;
682 -> 683 ;
684 [label="gini = 0.0\nsamples = 1\nvalue = [0, 1]\nclass = 1", fillcolor="#399de5"] ;
682 -> 684 ;
685 [label="gini = 0.0\nsamples = 7\nvalue = [7, 0]\nclass = 0", fillcolor="#e58139"] ;
679 -> 685 ;
686 [label="bmi <= 27.165\ngini = 0.075\nsamples = 258\nvalue = [248, 10]\nclass = 0", fillcolor="#e68641"] ;
620 -> 686 ;
687 [label="bmi <= 27.09\ngini = 0.176\nsamples = 41\nvalue = [37, 4]\nclass = 0", fillcolor="#e88f4e"] ;
686 -> 687 ;
688 [label="age <= 47.5\ngini = 0.097\nsamples = 39\nvalue = [37, 2]\nclass = 0", fillcolor="#e68844"] ;
687 -> 688 ;
689 [label="bmi <= 26.655\ngini = 0.056\nsamples = 35\nvalue = [34, 1]\nclass = 0", fillcolor="#e6853f"] ;
688 -> 689 ;
690 [label="gini = 0.0\nsamples = 18\nvalue = [18, 0]\nclass = 0", fillcolor="#e58139"] ;
689 -> 690 ;
691 [label="bmi <= 26.685\ngini = 0.111\nsamples = 17\nvalue = [16, 1]\nclass = 0", fillcolor="#e78945"] ;
689 -> 691 ;
692 [label="gini = 0.0\nsamples = 1\nvalue = [0, 1]\nclass = 1", fillcolor="#399de5"] ;
691 -> 692 ;
693 [label="gini = 0.0\nsamples = 16\nvalue = [16, 0]\nclass = 0", fillcolor="#e58139"] ;
691 -> 693 ;
694 [label="HbA1c_level <= 6.0\ngini = 0.375\nsamples = 4\nvalue = [3, 1]\nclass = 0", fillcolor="#eeab7b"] ;
688 -> 694 ;
695 [label="gini = 0.0\nsamples = 3\nvalue = [3, 0]\nclass = 0", fillcolor="#e58139"] ;
694 -> 695 ;
696 [label="gini = 0.0\nsamples = 1\nvalue = [0, 1]\nclass = 1", fillcolor="#399de5"] ;
694 -> 696 ;
697 [label="gini = 0.0\nsamples = 2\nvalue = [0, 2]\nclass = 1", fillcolor="#399de5"] ;
687 -> 697 ;
698 [label="age <= 43.5\ngini = 0.054\nsamples = 217\nvalue = [211, 6]\nclass = 0", fillcolor="#e6853f"] ;
686 -> 698 ;
699 [label="HbA1c_level <= 6.55\ngini = 0.088\nsamples = 109\nvalue = [104, 5]\nclass = 0", fillcolor="#e68743"] ;
698 -> 699 ;
700 [label="HbA1c_level <= 5.75\ngini = 0.064\nsamples = 91\nvalue = [88, 3]\nclass = 0", fillcolor="#e68540"] ;
699 -> 700 ;
701 [label="age <= 41.5\ngini = 0.18\nsamples = 20\nvalue = [18, 2]\nclass = 0", fillcolor="#e88f4f"] ;
700 -> 701 ;
702 [label="gini = 0.0\nsamples = 10\nvalue = [10, 0]\nclass = 0", fillcolor="#e58139"] ;
701 -> 702 ;
703 [label="blood_glucose_level <= 150.0\ngini = 0.32\nsamples = 10\nvalue = [8, 2]\nclass = 0", fillcolor="#eca06a"] ;
701 -> 703 ;
704 [label="smoking_history <= 1.5\ngini = 0.48\nsamples = 5\nvalue = [3, 2]\nclass = 0", fillcolor="#f6d5bd"] ;
703 -> 704 ;
705 [label="age <= 42.5\ngini = 0.444\nsamples = 3\nvalue = [1, 2]\nclass = 1", fillcolor="#9ccef2"] ;
704 -> 705 ;
706 [label="gini = 0.0\nsamples = 1\nvalue = [0, 1]\nclass = 1", fillcolor="#399de5"] ;
705 -> 706 ;
707 [label="gini = 0.5\nsamples = 2\nvalue = [1, 1]\nclass = 0", fillcolor="#ffffff"] ;
705 -> 707 ;
708 [label="gini = 0.0\nsamples = 2\nvalue = [2, 0]\nclass = 0", fillcolor="#e58139"] ;
704 -> 708 ;
709 [label="gini = 0.0\nsamples = 5\nvalue = [5, 0]\nclass = 0", fillcolor="#e58139"] ;
703 -> 709 ;
710 [label="blood_glucose_level <= 142.5\ngini = 0.028\nsamples = 71\nvalue = [70, 1]\nclass = 0", fillcolor="#e5833c"] ;
700 -> 710 ;
711 [label="gender <= 0.5\ngini = 0.064\nsamples = 30\nvalue = [29, 1]\nclass = 0", fillcolor="#e68540"] ;
710 -> 711 ;
712 [label="gini = 0.0\nsamples = 16\nvalue = [16, 0]\nclass = 0", fillcolor="#e58139"] ;
711 -> 712 ;
713 [label="HbA1c_level <= 6.15\ngini = 0.133\nsamples = 14\nvalue = [13, 1]\nclass = 0", fillcolor="#e78b48"] ;
711 -> 713 ;
714 [label="age <= 41.5\ngini = 0.245\nsamples = 7\nvalue = [6, 1]\nclass = 0", fillcolor="#e9965a"] ;
713 -> 714 ;
715 [label="gini = 0.0\nsamples = 2\nvalue = [2, 0]\nclass = 0", fillcolor="#e58139"] ;
714 -> 715 ;
716 [label="age <= 42.5\ngini = 0.32\nsamples = 5\nvalue = [4, 1]\nclass = 0", fillcolor="#eca06a"] ;
714 -> 716 ;
717 [label="gini = 0.444\nsamples = 3\nvalue = [2, 1]\nclass = 0", fillcolor="#f2c09c"] ;
716 -> 717 ;
718 [label="gini = 0.0\nsamples = 2\nvalue = [2, 0]\nclass = 0", fillcolor="#e58139"] ;
716 -> 718 ;
719 [label="gini = 0.0\nsamples = 7\nvalue = [7, 0]\nclass = 0", fillcolor="#e58139"] ;
713 -> 719 ;
720 [label="gini = 0.0\nsamples = 41\nvalue = [41, 0]\nclass = 0", fillcolor="#e58139"] ;
710 -> 720 ;
721 [label="age <= 39.5\ngini = 0.198\nsamples = 18\nvalue = [16, 2]\nclass = 0", fillcolor="#e89152"] ;
699 -> 721 ;
722 [label="blood_glucose_level <= 147.5\ngini = 0.5\nsamples = 2\nvalue = [1, 1]\nclass = 0", fillcolor="#ffffff"] ;
721 -> 722 ;
723 [label="gini = 0.0\nsamples = 1\nvalue = [1, 0]\nclass = 0", fillcolor="#e58139"] ;
722 -> 723 ;
724 [label="gini = 0.0\nsamples = 1\nvalue = [0, 1]\nclass = 1", fillcolor="#399de5"] ;
722 -> 724 ;
725 [label="smoking_history <= 2.5\ngini = 0.117\nsamples = 16\nvalue = [15, 1]\nclass = 0", fillcolor="#e78946"] ;
721 -> 725 ;
726 [label="gini = 0.0\nsamples = 13\nvalue = [13, 0]\nclass = 0", fillcolor="#e58139"] ;
725 -> 726 ;
727 [label="blood_glucose_level <= 150.0\ngini = 0.444\nsamples = 3\nvalue = [2, 1]\nclass = 0", fillcolor="#f2c09c"] ;
725 -> 727 ;
728 [label="gini = 0.0\nsamples = 1\nvalue = [0, 1]\nclass = 1", fillcolor="#399de5"] ;
727 -> 728 ;
729 [label="gini = 0.0\nsamples = 2\nvalue = [2, 0]\nclass = 0", fillcolor="#e58139"] ;
727 -> 729 ;
730 [label="age <= 47.5\ngini = 0.018\nsamples = 108\nvalue = [107, 1]\nclass = 0", fillcolor="#e5823b"] ;
698 -> 730 ;
731 [label="gini = 0.0\nsamples = 87\nvalue = [87, 0]\nclass = 0", fillcolor="#e58139"] ;
730 -> 731 ;
732 [label="HbA1c_level <= 6.35\ngini = 0.091\nsamples = 21\nvalue = [20, 1]\nclass = 0", fillcolor="#e68743"] ;
730 -> 732 ;
733 [label="gini = 0.0\nsamples = 15\nvalue = [15, 0]\nclass = 0", fillcolor="#e58139"] ;
732 -> 733 ;
734 [label="gender <= 0.5\ngini = 0.278\nsamples = 6\nvalue = [5, 1]\nclass = 0", fillcolor="#ea9a61"] ;
732 -> 734 ;
735 [label="gini = 0.0\nsamples = 3\nvalue = [3, 0]\nclass = 0", fillcolor="#e58139"] ;
734 -> 735 ;
736 [label="HbA1c_level <= 6.55\ngini = 0.444\nsamples = 3\nvalue = [2, 1]\nclass = 0", fillcolor="#f2c09c"] ;
734 -> 736 ;
737 [label="blood_glucose_level <= 150.0\ngini = 0.5\nsamples = 2\nvalue = [1, 1]\nclass = 0", fillcolor="#ffffff"] ;
736 -> 737 ;
738 [label="gini = 0.0\nsamples = 1\nvalue = [1, 0]\nclass = 0", fillcolor="#e58139"] ;
737 -> 738 ;
739 [label="gini = 0.0\nsamples = 1\nvalue = [0, 1]\nclass = 1", fillcolor="#399de5"] ;
737 -> 739 ;
740 [label="gini = 0.0\nsamples = 1\nvalue = [1, 0]\nclass = 0", fillcolor="#e58139"] ;
736 -> 740 ;
741 [label="gini = 0.0\nsamples = 46\nvalue = [46, 0]\nclass = 0", fillcolor="#e58139"] ;
619 -> 741 ;
742 [label="bmi <= 27.895\ngini = 0.157\nsamples = 70\nvalue = [64, 6]\nclass = 0", fillcolor="#e78d4c"] ;
618 -> 742 ;
743 [label="HbA1c_level <= 6.15\ngini = 0.408\nsamples = 14\nvalue = [10, 4]\nclass = 0", fillcolor="#efb388"] ;
742 -> 743 ;
744 [label="blood_glucose_level <= 150.0\ngini = 0.5\nsamples = 8\nvalue = [4, 4]\nclass = 0", fillcolor="#ffffff"] ;
743 -> 744 ;
745 [label="bmi <= 27.835\ngini = 0.444\nsamples = 6\nvalue = [4, 2]\nclass = 0", fillcolor="#f2c09c"] ;
744 -> 745 ;
746 [label="gini = 0.0\nsamples = 4\nvalue = [4, 0]\nclass = 0", fillcolor="#e58139"] ;
745 -> 746 ;
747 [label="gini = 0.0\nsamples = 2\nvalue = [0, 2]\nclass = 1", fillcolor="#399de5"] ;
745 -> 747 ;
748 [label="gini = 0.0\nsamples = 2\nvalue = [0, 2]\nclass = 1", fillcolor="#399de5"] ;
744 -> 748 ;
749 [label="gini = 0.0\nsamples = 6\nvalue = [6, 0]\nclass = 0", fillcolor="#e58139"] ;
743 -> 749 ;
750 [label="age <= 46.5\ngini = 0.069\nsamples = 56\nvalue = [54, 2]\nclass = 0", fillcolor="#e68640"] ;
742 -> 750 ;
751 [label="gini = 0.0\nsamples = 44\nvalue = [44, 0]\nclass = 0", fillcolor="#e58139"] ;
750 -> 751 ;
752 [label="gender <= 0.5\ngini = 0.278\nsamples = 12\nvalue = [10, 2]\nclass = 0", fillcolor="#ea9a61"] ;
750 -> 752 ;
753 [label="gini = 0.0\nsamples = 8\nvalue = [8, 0]\nclass = 0", fillcolor="#e58139"] ;
752 -> 753 ;
754 [label="bmi <= 28.255\ngini = 0.5\nsamples = 4\nvalue = [2, 2]\nclass = 0", fillcolor="#ffffff"] ;
752 -> 754 ;
755 [label="gini = 0.0\nsamples = 2\nvalue = [0, 2]\nclass = 1", fillcolor="#399de5"] ;
754 -> 755 ;
756 [label="gini = 0.0\nsamples = 2\nvalue = [2, 0]\nclass = 0", fillcolor="#e58139"] ;
754 -> 756 ;
757 [label="age <= 42.5\ngini = 0.5\nsamples = 2\nvalue = [1, 1]\nclass = 0", fillcolor="#ffffff"] ;
617 -> 757 ;
758 [label="gini = 0.0\nsamples = 1\nvalue = [1, 0]\nclass = 0", fillcolor="#e58139"] ;
757 -> 758 ;
759 [label="gini = 0.0\nsamples = 1\nvalue = [0, 1]\nclass = 1", fillcolor="#399de5"] ;
757 -> 759 ;
760 [label="gini = 0.0\nsamples = 32\nvalue = [32, 0]\nclass = 0", fillcolor="#e58139"] ;
616 -> 760 ;
761 [label="bmi <= 29.045\ngini = 0.255\nsamples = 20\nvalue = [17, 3]\nclass = 0", fillcolor="#ea975c"] ;
615 -> 761 ;
762 [label="smoking_history <= 2.5\ngini = 0.49\nsamples = 7\nvalue = [4, 3]\nclass = 0", fillcolor="#f8e0ce"] ;
761 -> 762 ;
763 [label="blood_glucose_level <= 147.5\ngini = 0.375\nsamples = 4\nvalue = [3, 1]\nclass = 0", fillcolor="#eeab7b"] ;
762 -> 763 ;
764 [label="gini = 0.0\nsamples = 2\nvalue = [2, 0]\nclass = 0", fillcolor="#e58139"] ;
763 -> 764 ;
765 [label="HbA1c_level <= 6.0\ngini = 0.5\nsamples = 2\nvalue = [1, 1]\nclass = 0", fillcolor="#ffffff"] ;
763 -> 765 ;
766 [label="gini = 0.0\nsamples = 1\nvalue = [1, 0]\nclass = 0", fillcolor="#e58139"] ;
765 -> 766 ;
767 [label="gini = 0.0\nsamples = 1\nvalue = [0, 1]\nclass = 1", fillcolor="#399de5"] ;
765 -> 767 ;
768 [label="blood_glucose_level <= 128.0\ngini = 0.444\nsamples = 3\nvalue = [1, 2]\nclass = 1", fillcolor="#9ccef2"] ;
762 -> 768 ;
769 [label="gini = 0.0\nsamples = 1\nvalue = [1, 0]\nclass = 0", fillcolor="#e58139"] ;
768 -> 769 ;
770 [label="gini = 0.0\nsamples = 2\nvalue = [0, 2]\nclass = 1", fillcolor="#399de5"] ;
768 -> 770 ;
771 [label="gini = 0.0\nsamples = 13\nvalue = [13, 0]\nclass = 0", fillcolor="#e58139"] ;
761 -> 771 ;
772 [label="HbA1c_level <= 6.05\ngini = 0.13\nsamples = 631\nvalue = [587, 44]\nclass = 0", fillcolor="#e78a48"] ;
566 -> 772 ;
773 [label="blood_glucose_level <= 128.0\ngini = 0.084\nsamples = 297\nvalue = [284, 13]\nclass = 0", fillcolor="#e68742"] ;
772 -> 773 ;
774 [label="age <= 49.5\ngini = 0.211\nsamples = 50\nvalue = [44, 6]\nclass = 0", fillcolor="#e99254"] ;
773 -> 774 ;
775 [label="smoking_history <= 1.0\ngini = 0.444\nsamples = 9\nvalue = [6, 3]\nclass = 0", fillcolor="#f2c09c"] ;
774 -> 775 ;
776 [label="bmi <= 26.2\ngini = 0.375\nsamples = 4\nvalue = [1, 3]\nclass = 1", fillcolor="#7bbeee"] ;
775 -> 776 ;
777 [label="gender <= 0.5\ngini = 0.5\nsamples = 2\nvalue = [1, 1]\nclass = 0", fillcolor="#ffffff"] ;
776 -> 777 ;
778 [label="gini = 0.0\nsamples = 1\nvalue = [0, 1]\nclass = 1", fillcolor="#399de5"] ;
777 -> 778 ;
779 [label="gini = 0.0\nsamples = 1\nvalue = [1, 0]\nclass = 0", fillcolor="#e58139"] ;
777 -> 779 ;
780 [label="gini = 0.0\nsamples = 2\nvalue = [0, 2]\nclass = 1", fillcolor="#399de5"] ;
776 -> 780 ;
781 [label="gini = 0.0\nsamples = 5\nvalue = [5, 0]\nclass = 0", fillcolor="#e58139"] ;
775 -> 781 ;
782 [label="HbA1c_level <= 5.75\ngini = 0.136\nsamples = 41\nvalue = [38, 3]\nclass = 0", fillcolor="#e78b49"] ;
774 -> 782 ;
783 [label="age <= 51.5\ngini = 0.32\nsamples = 10\nvalue = [8, 2]\nclass = 0", fillcolor="#eca06a"] ;
782 -> 783 ;
784 [label="bmi <= 23.735\ngini = 0.219\nsamples = 8\nvalue = [7, 1]\nclass = 0", fillcolor="#e99355"] ;
783 -> 784 ;
785 [label="bmi <= 21.285\ngini = 0.5\nsamples = 2\nvalue = [1, 1]\nclass = 0", fillcolor="#ffffff"] ;
784 -> 785 ;
786 [label="gini = 0.0\nsamples = 1\nvalue = [1, 0]\nclass = 0", fillcolor="#e58139"] ;
785 -> 786 ;
787 [label="gini = 0.0\nsamples = 1\nvalue = [0, 1]\nclass = 1", fillcolor="#399de5"] ;
785 -> 787 ;
788 [label="gini = 0.0\nsamples = 6\nvalue = [6, 0]\nclass = 0", fillcolor="#e58139"] ;
784 -> 788 ;
789 [label="age <= 52.5\ngini = 0.5\nsamples = 2\nvalue = [1, 1]\nclass = 0", fillcolor="#ffffff"] ;
783 -> 789 ;
790 [label="gini = 0.0\nsamples = 1\nvalue = [0, 1]\nclass = 1", fillcolor="#399de5"] ;
789 -> 790 ;
791 [label="gini = 0.0\nsamples = 1\nvalue = [1, 0]\nclass = 0", fillcolor="#e58139"] ;
789 -> 791 ;
792 [label="age <= 53.5\ngini = 0.062\nsamples = 31\nvalue = [30, 1]\nclass = 0", fillcolor="#e68540"] ;
782 -> 792 ;
793 [label="gini = 0.0\nsamples = 25\nvalue = [25, 0]\nclass = 0", fillcolor="#e58139"] ;
792 -> 793 ;
794 [label="smoking_history <= 1.0\ngini = 0.278\nsamples = 6\nvalue = [5, 1]\nclass = 0", fillcolor="#ea9a61"] ;
792 -> 794 ;
795 [label="gini = 0.0\nsamples = 4\nvalue = [4, 0]\nclass = 0", fillcolor="#e58139"] ;
794 -> 795 ;
796 [label="smoking_history <= 2.5\ngini = 0.5\nsamples = 2\nvalue = [1, 1]\nclass = 0", fillcolor="#ffffff"] ;
794 -> 796 ;
797 [label="gini = 0.0\nsamples = 1\nvalue = [0, 1]\nclass = 1", fillcolor="#399de5"] ;
796 -> 797 ;
798 [label="gini = 0.0\nsamples = 1\nvalue = [1, 0]\nclass = 0", fillcolor="#e58139"] ;
796 -> 798 ;
799 [label="bmi <= 27.525\ngini = 0.055\nsamples = 247\nvalue = [240, 7]\nclass = 0", fillcolor="#e6853f"] ;
773 -> 799 ;
800 [label="blood_glucose_level <= 142.5\ngini = 0.037\nsamples = 212\nvalue = [208, 4]\nclass = 0", fillcolor="#e6833d"] ;
799 -> 800 ;
801 [label="gini = 0.0\nsamples = 107\nvalue = [107, 0]\nclass = 0", fillcolor="#e58139"] ;
800 -> 801 ;
802 [label="age <= 50.5\ngini = 0.073\nsamples = 105\nvalue = [101, 4]\nclass = 0", fillcolor="#e68641"] ;
800 -> 802 ;
803 [label="gini = 0.0\nsamples = 35\nvalue = [35, 0]\nclass = 0", fillcolor="#e58139"] ;
802 -> 803 ;
804 [label="age <= 51.5\ngini = 0.108\nsamples = 70\nvalue = [66, 4]\nclass = 0", fillcolor="#e78945"] ;
802 -> 804 ;
805 [label="gender <= 0.5\ngini = 0.208\nsamples = 17\nvalue = [15, 2]\nclass = 0", fillcolor="#e89253"] ;
804 -> 805 ;
806 [label="gini = 0.0\nsamples = 10\nvalue = [10, 0]\nclass = 0", fillcolor="#e58139"] ;
805 -> 806 ;
807 [label="bmi <= 24.74\ngini = 0.408\nsamples = 7\nvalue = [5, 2]\nclass = 0", fillcolor="#efb388"] ;
805 -> 807 ;
808 [label="gini = 0.0\nsamples = 1\nvalue = [0, 1]\nclass = 1", fillcolor="#399de5"] ;
807 -> 808 ;
809 [label="blood_glucose_level <= 150.0\ngini = 0.278\nsamples = 6\nvalue = [5, 1]\nclass = 0", fillcolor="#ea9a61"] ;
807 -> 809 ;
810 [label="HbA1c_level <= 5.85\ngini = 0.444\nsamples = 3\nvalue = [2, 1]\nclass = 0", fillcolor="#f2c09c"] ;
809 -> 810 ;
811 [label="gini = 0.5\nsamples = 2\nvalue = [1, 1]\nclass = 0", fillcolor="#ffffff"] ;
810 -> 811 ;
812 [label="gini = 0.0\nsamples = 1\nvalue = [1, 0]\nclass = 0", fillcolor="#e58139"] ;
810 -> 812 ;
813 [label="gini = 0.0\nsamples = 3\nvalue = [3, 0]\nclass = 0", fillcolor="#e58139"] ;
809 -> 813 ;
814 [label="bmi <= 21.91\ngini = 0.073\nsamples = 53\nvalue = [51, 2]\nclass = 0", fillcolor="#e68641"] ;
804 -> 814 ;
815 [label="bmi <= 20.97\ngini = 0.245\nsamples = 7\nvalue = [6, 1]\nclass = 0", fillcolor="#e9965a"] ;
814 -> 815 ;
816 [label="gini = 0.0\nsamples = 6\nvalue = [6, 0]\nclass = 0", fillcolor="#e58139"] ;
815 -> 816 ;
817 [label="gini = 0.0\nsamples = 1\nvalue = [0, 1]\nclass = 1", fillcolor="#399de5"] ;
815 -> 817 ;
818 [label="age <= 53.5\ngini = 0.043\nsamples = 46\nvalue = [45, 1]\nclass = 0", fillcolor="#e6843d"] ;
814 -> 818 ;
819 [label="gini = 0.0\nsamples = 29\nvalue = [29, 0]\nclass = 0", fillcolor="#e58139"] ;
818 -> 819 ;
820 [label="gender <= 0.5\ngini = 0.111\nsamples = 17\nvalue = [16, 1]\nclass = 0", fillcolor="#e78945"] ;
818 -> 820 ;
821 [label="smoking_history <= 0.5\ngini = 0.198\nsamples = 9\nvalue = [8, 1]\nclass = 0", fillcolor="#e89152"] ;
820 -> 821 ;
822 [label="HbA1c_level <= 5.9\ngini = 0.375\nsamples = 4\nvalue = [3, 1]\nclass = 0", fillcolor="#eeab7b"] ;
821 -> 822 ;
823 [label="blood_glucose_level <= 150.0\ngini = 0.5\nsamples = 2\nvalue = [1, 1]\nclass = 0", fillcolor="#ffffff"] ;
822 -> 823 ;
824 [label="gini = 0.0\nsamples = 1\nvalue = [0, 1]\nclass = 1", fillcolor="#399de5"] ;
823 -> 824 ;
825 [label="gini = 0.0\nsamples = 1\nvalue = [1, 0]\nclass = 0", fillcolor="#e58139"] ;
823 -> 825 ;
826 [label="gini = 0.0\nsamples = 2\nvalue = [2, 0]\nclass = 0", fillcolor="#e58139"] ;
822 -> 826 ;
827 [label="gini = 0.0\nsamples = 5\nvalue = [5, 0]\nclass = 0", fillcolor="#e58139"] ;
821 -> 827 ;
828 [label="gini = 0.0\nsamples = 8\nvalue = [8, 0]\nclass = 0", fillcolor="#e58139"] ;
820 -> 828 ;
829 [label="bmi <= 27.7\ngini = 0.157\nsamples = 35\nvalue = [32, 3]\nclass = 0", fillcolor="#e78d4c"] ;
799 -> 829 ;
830 [label="bmi <= 27.61\ngini = 0.444\nsamples = 3\nvalue = [1, 2]\nclass = 1", fillcolor="#9ccef2"] ;
829 -> 830 ;
831 [label="blood_glucose_level <= 137.5\ngini = 0.5\nsamples = 2\nvalue = [1, 1]\nclass = 0", fillcolor="#ffffff"] ;
830 -> 831 ;
832 [label="gini = 0.0\nsamples = 1\nvalue = [0, 1]\nclass = 1", fillcolor="#399de5"] ;
831 -> 832 ;
833 [label="gini = 0.0\nsamples = 1\nvalue = [1, 0]\nclass = 0", fillcolor="#e58139"] ;
831 -> 833 ;
834 [label="gini = 0.0\nsamples = 1\nvalue = [0, 1]\nclass = 1", fillcolor="#399de5"] ;
830 -> 834 ;
835 [label="smoking_history <= 2.5\ngini = 0.061\nsamples = 32\nvalue = [31, 1]\nclass = 0", fillcolor="#e6853f"] ;
829 -> 835 ;
836 [label="gini = 0.0\nsamples = 23\nvalue = [23, 0]\nclass = 0", fillcolor="#e58139"] ;
835 -> 836 ;
837 [label="blood_glucose_level <= 142.5\ngini = 0.198\nsamples = 9\nvalue = [8, 1]\nclass = 0", fillcolor="#e89152"] ;
835 -> 837 ;
838 [label="gini = 0.0\nsamples = 5\nvalue = [5, 0]\nclass = 0", fillcolor="#e58139"] ;
837 -> 838 ;
839 [label="gender <= 0.5\ngini = 0.375\nsamples = 4\nvalue = [3, 1]\nclass = 0", fillcolor="#eeab7b"] ;
837 -> 839 ;
840 [label="gini = 0.0\nsamples = 2\nvalue = [2, 0]\nclass = 0", fillcolor="#e58139"] ;
839 -> 840 ;
841 [label="HbA1c_level <= 5.85\ngini = 0.5\nsamples = 2\nvalue = [1, 1]\nclass = 0", fillcolor="#ffffff"] ;
839 -> 841 ;
842 [label="gini = 0.0\nsamples = 1\nvalue = [0, 1]\nclass = 1", fillcolor="#399de5"] ;
841 -> 842 ;
843 [label="gini = 0.0\nsamples = 1\nvalue = [1, 0]\nclass = 0", fillcolor="#e58139"] ;
841 -> 843 ;
844 [label="bmi <= 24.04\ngini = 0.168\nsamples = 334\nvalue = [303, 31]\nclass = 0", fillcolor="#e88e4d"] ;
772 -> 844 ;
845 [label="gender <= 0.5\ngini = 0.081\nsamples = 94\nvalue = [90, 4]\nclass = 0", fillcolor="#e68742"] ;
844 -> 845 ;
846 [label="blood_glucose_level <= 128.0\ngini = 0.026\nsamples = 77\nvalue = [76, 1]\nclass = 0", fillcolor="#e5833c"] ;
845 -> 846 ;
847 [label="bmi <= 22.245\ngini = 0.165\nsamples = 11\nvalue = [10, 1]\nclass = 0", fillcolor="#e88e4d"] ;
846 -> 847 ;
848 [label="HbA1c_level <= 6.15\ngini = 0.375\nsamples = 4\nvalue = [3, 1]\nclass = 0", fillcolor="#eeab7b"] ;
847 -> 848 ;
849 [label="gini = 0.0\nsamples = 1\nvalue = [0, 1]\nclass = 1", fillcolor="#399de5"] ;
848 -> 849 ;
850 [label="gini = 0.0\nsamples = 3\nvalue = [3, 0]\nclass = 0", fillcolor="#e58139"] ;
848 -> 850 ;
851 [label="gini = 0.0\nsamples = 7\nvalue = [7, 0]\nclass = 0", fillcolor="#e58139"] ;
847 -> 851 ;
852 [label="gini = 0.0\nsamples = 66\nvalue = [66, 0]\nclass = 0", fillcolor="#e58139"] ;
846 -> 852 ;
853 [label="bmi <= 21.775\ngini = 0.291\nsamples = 17\nvalue = [14, 3]\nclass = 0", fillcolor="#eb9c63"] ;
845 -> 853 ;
854 [label="bmi <= 20.405\ngini = 0.42\nsamples = 10\nvalue = [7, 3]\nclass = 0", fillcolor="#f0b78e"] ;
853 -> 854 ;
855 [label="gini = 0.0\nsamples = 5\nvalue = [5, 0]\nclass = 0", fillcolor="#e58139"] ;
854 -> 855 ;
856 [label="age <= 51.5\ngini = 0.48\nsamples = 5\nvalue = [2, 3]\nclass = 1", fillcolor="#bddef6"] ;
854 -> 856 ;
857 [label="gini = 0.0\nsamples = 2\nvalue = [0, 2]\nclass = 1", fillcolor="#399de5"] ;
856 -> 857 ;
858 [label="HbA1c_level <= 6.15\ngini = 0.444\nsamples = 3\nvalue = [2, 1]\nclass = 0", fillcolor="#f2c09c"] ;
856 -> 858 ;
859 [label="gini = 0.0\nsamples = 1\nvalue = [0, 1]\nclass = 1", fillcolor="#399de5"] ;
858 -> 859 ;
860 [label="gini = 0.0\nsamples = 2\nvalue = [2, 0]\nclass = 0", fillcolor="#e58139"] ;
858 -> 860 ;
861 [label="gini = 0.0\nsamples = 7\nvalue = [7, 0]\nclass = 0", fillcolor="#e58139"] ;
853 -> 861 ;
862 [label="bmi <= 24.09\ngini = 0.2\nsamples = 240\nvalue = [213, 27]\nclass = 0", fillcolor="#e89152"] ;
844 -> 862 ;
863 [label="gini = 0.0\nsamples = 1\nvalue = [0, 1]\nclass = 1", fillcolor="#399de5"] ;
862 -> 863 ;
864 [label="bmi <= 25.335\ngini = 0.194\nsamples = 239\nvalue = [213, 26]\nclass = 0", fillcolor="#e89051"] ;
862 -> 864 ;
865 [label="bmi <= 25.225\ngini = 0.312\nsamples = 31\nvalue = [25, 6]\nclass = 0", fillcolor="#eb9f69"] ;
864 -> 865 ;
866 [label="age <= 49.5\ngini = 0.191\nsamples = 28\nvalue = [25, 3]\nclass = 0", fillcolor="#e89051"] ;
865 -> 866 ;
867 [label="bmi <= 24.615\ngini = 0.48\nsamples = 5\nvalue = [3, 2]\nclass = 0", fillcolor="#f6d5bd"] ;
866 -> 867 ;
868 [label="bmi <= 24.415\ngini = 0.444\nsamples = 3\nvalue = [1, 2]\nclass = 1", fillcolor="#9ccef2"] ;
867 -> 868 ;
869 [label="gini = 0.0\nsamples = 1\nvalue = [0, 1]\nclass = 1", fillcolor="#399de5"] ;
868 -> 869 ;
870 [label="blood_glucose_level <= 133.0\ngini = 0.5\nsamples = 2\nvalue = [1, 1]\nclass = 0", fillcolor="#ffffff"] ;
868 -> 870 ;
871 [label="gini = 0.0\nsamples = 1\nvalue = [0, 1]\nclass = 1", fillcolor="#399de5"] ;
870 -> 871 ;
872 [label="gini = 0.0\nsamples = 1\nvalue = [1, 0]\nclass = 0", fillcolor="#e58139"] ;
870 -> 872 ;
873 [label="gini = 0.0\nsamples = 2\nvalue = [2, 0]\nclass = 0", fillcolor="#e58139"] ;
867 -> 873 ;
